{"learner":{"attributes":{"best_iteration":"179","best_score":"0.614597105281847"},"feature_names":[],"feature_types":[],"gradient_booster":{"model":{"gbtree_model_param":{"num_parallel_tree":"1","num_trees":"230"},"iteration_indptr":[0,1,2,3,4,5,6,7,8,9,10,11,12,13,14,15,16,17,18,19,20,21,22,23,24,25,26,27,28,29,30,31,32,33,34,35,36,37,38,39,40,41,42,43,44,45,46,47,48,49,50,51,52,53,54,55,56,57,58,59,60,61,62,63,64,65,66,67,68,69,70,71,72,73,74,75,76,77,78,79,80,81,82,83,84,85,86,87,88,89,90,91,92,93,94,95,96,97,98,99,100,101,102,103,104,105,106,107,108,109,110,111,112,113,114,115,116,117,118,119,120,121,122,123,124,125,126,127,128,129,130,131,132,133,134,135,136,137,138,139,140,141,142,143,144,145,146,147,148,149,150,151,152,153,154,155,156,157,158,159,160,161,162,163,164,165,166,167,168,169,170,171,172,173,174,175,176,177,178,179,180,181,182,183,184,185,186,187,188,189,190,191,192,193,194,195,196,197,198,199,200,201,202,203,204,205,206,207,208,209,210,211,212,213,214,215,216,217,218,219,220,221,222,223,224,225,226,227,228,229,230],"tree_info":[0,0,0,0,0,0,0,0,0,0,0,0,0,0,0,0,0,0,0,0,0,0,0,0,0,0,0,0,0,0,0,0,0,0,0,0,0,0,0,0,0,0,0,0,0,0,0,0,0,0,0,0,0,0,0,0,0,0,0,0,0,0,0,0,0,0,0,0,0,0,0,0,0,0,0,0,0,0,0,0,0,0,0,0,0,0,0,0,0,0,0,0,0,0,0,0,0,0,0,0,0,0,0,0,0,0,0,0,0,0,0,0,0,0,0,0,0,0,0,0,0,0,0,0,0,0,0,0,0,0,0,0,0,0,0,0,0,0,0,0,0,0,0,0,0,0,0,0,0,0,0,0,0,0,0,0,0,0,0,0,0,0,0,0,0,0,0,0,0,0,0,0,0,0,0,0,0,0,0,0,0,0,0,0,0,0,0,0,0,0,0,0,0,0,0,0,0,0,0,0,0,0,0,0,0,0,0,0,0,0,0,0,0,0,0,0,0,0,0,0,0,0,0,0,0,0,0,0,0,0],"trees":[{"base_weights":[8.395782E-8,-4.0604833E-1,2.9760703E-1,8.334699E-2,-5.7561046E-1,7.407104E-2,6.354423E-1,-5.6668002E-2,4.672609E-1,-7.70422E-1,-1.6258402E-1,-2.3390245E-1,2.3360798E-1,8.3922046E-1,4.797214E-1,-9.32107E-1,-3.675108E-3,-2.743125E-1,6.362829E-1,-8.6368287E-1,-2.1623999E-1,-3.1008628E-1,3.1273565E-1,-4.40142E-1,2.3943931E-1,3.865075E-1,-3.8532296E-1,8.951461E-1,-1.10805765E-1,1.7120188E-1,6.319402E-1,-1.1242797E0,5.08412E-2,2.580497E-1,-1.8808743E-1,1.8864483E-2,-1.0890148E-1,8.1987995E-1,-3.6556635E-2,-9.715645E-1,-3.4630063E-1,-3.7781373E-1,5.126307E-1,-5.2254754E-1,9.722428E-4,1.1720874E-1,1.1912587E0,-8.1712615E-1,-3.093062E-1,-8.989025E-2,9.127859E-1,4.853616E-1,-5.023677E-2,-5.212664E-1,3.1638384E-1,7.003652E-1,1.1241477E0,-5.968679E-1,7.760334E-1,-2.5611424E-1,4.4931635E-1,-1.8396229E-1,6.807329E-1,-9.964385E-2,1.4597586E-2,5.831026E-3,5.588584E-2,6.274124E-2,-2.0086594E-2,9.8220386E-2,-3.096517E-2,6.931576E-2,-2.3744492E-2,1.9205134E-2,-7.826388E-2,-2.730214E-2,-7.627078E-2,8.030482E-2,-3.6009993E-2,-4.0268328E-2,3.6857273E-2,6.6495694E-2,-2.0136878E-2,-1.0057759E-2,-5.5094067E-2,7.964603E-2,-9.560458E-3,-1.8803893E-2,4.1707933E-2,1.0951824E-1,2.4877528E-2,-6.951332E-2,3.876078E-2,-3.9472435E-2,1.7948207E-4,-2.4381498E-2,3.4452002E-2,8.386913E-2,-4.8782416E-2,2.5592651E-2,5.445942E-2,-1.9081568E-2,4.5094904E-2,-6.0854327E-2,-5.802416E-3,-3.869558E-2,4.7433082E-2,5.9838507E-2,-8.310433E-3,1.9826038E-2,9.080601E-2,-7.1893774E-2,5.874113E-2,9.6697204E-2,-3.9951384E-2,-5.0421473E-2,7.276892E-3,2.0618336E-2,9.641753E-2,3.59729E-2,-6.9262944E-2,-6.681301E-3,5.499709E-2],"categories":[],"categories_nodes":[],"categories_segments":[],"categories_sizes":[],"default_left":[0,0,0,0,0,0,0,0,0,0,0,0,0,0,0,0,0,0,0,0,0,0,0,0,0,0,0,0,0,0,0,0,0,0,0,0,0,0,0,0,0,0,0,0,0,0,0,0,0,0,0,0,0,0,0,0,0,0,0,0,0,0,0,0,0,0,0,0,0,0,0,0,0,0,0,0,0,0,0,0,0,0,0,0,0,0,0,0,0,0,0,0,0,0,0,0,0,0,0,0,0,0,0,0,0,0,0,0,0,0,0,0,0,0,0,0,0,0,0,0,0,0,0],"id":0,"left_children":[1,3,5,7,9,11,13,15,17,19,21,23,25,27,29,31,33,35,37,39,41,43,45,47,49,51,53,55,57,59,61,63,-1,65,67,69,-1,71,73,75,77,79,81,83,85,87,89,91,93,95,97,99,101,103,105,107,109,111,113,115,117,119,121,-1,-1,-1,-1,-1,-1,-1,-1,-1,-1,-1,-1,-1,-1,-1,-1,-1,-1,-1,-1,-1,-1,-1,-1,-1,-1,-1,-1,-1,-1,-1,-1,-1,-1,-1,-1,-1,-1,-1,-1,-1,-1,-1,-1,-1,-1,-1,-1,-1,-1,-1,-1,-1,-1,-1,-1,-1,-1,-1,-1],"loss_changes":[4.0260754E2,1.1697984E2,1.4514111E2,1.9563978E1,8.409009E1,5.695735E1,2.38862E1,1.2393597E1,1.236285E1,3.655652E1,2.370438E1,3.8735317E1,7.239487E1,1.764386E1,2.0377136E1,5.4799757E0,1.225842E1,6.500708E0,9.849731E0,3.36102E1,1.2410715E1,1.7016422E1,1.36439295E1,1.3359039E1,2.6856028E1,2.6476555E1,1.4639271E1,1.3128082E1,8.760278E0,1.7404963E1,1.173864E1,4.0306816E0,0E0,9.162716E0,1.239586E1,9.455942E0,0E0,7.702385E0,5.5706244E0,1.3488953E1,2.0709259E1,1.2086837E1,5.8608756E0,1.2502171E1,1.4511143E1,1.0917287E1,2.8678322E0,1.0796135E1,1.3966801E1,1.074117E1,1.3493515E1,1.7091995E1,1.53164625E1,1.6355865E1,6.9679794E0,1.3628502E1,1.0233276E1,7.2397413E0,5.5563073E0,8.588451E0,1.2552706E1,8.907782E0,1.1211708E1,0E0,0E0,0E0,0E0,0E0,0E0,0E0,0E0,0E0,0E0,0E0,0E0,0E0,0E0,0E0,0E0,0E0,0E0,0E0,0E0,0E0,0E0,0E0,0E0,0E0,0E0,0E0,0E0,0E0,0E0,0E0,0E0,0E0,0E0,0E0,0E0,0E0,0E0,0E0,0E0,0E0,0E0,0E0,0E0,0E0,0E0,0E0,0E0,0E0,0E0,0E0,0E0,0E0,0E0,0E0,0E0,0E0,0E0,0E0,0E0],"parents":[2147483647,0,0,1,1,2,2,3,3,4,4,5,5,6,6,7,7,8,8,9,9,10,10,11,11,12,12,13,13,14,14,15,15,16,16,17,17,18,18,19,19,20,20,21,21,22,22,23,23,24,24,25,25,26,26,27,27,28,28,29,29,30,30,31,31,33,33,34,34,35,35,37,37,38,38,39,39,40,40,41,41,42,42,43,43,44,44,45,45,46,46,47,47,48,48,49,49,50,50,51,51,52,52,53,53,54,54,55,55,56,56,57,57,58,58,59,59,60,60,61,61,62,62],"right_children":[2,4,6,8,10,12,14,16,18,20,22,24,26,28,30,32,34,36,38,40,42,44,46,48,50,52,54,56,58,60,62,64,-1,66,68,70,-1,72,74,76,78,80,82,84,86,88,90,92,94,96,98,100,102,104,106,108,110,112,114,116,118,120,122,-1,-1,-1,-1,-1,-1,-1,-1,-1,-1,-1,-1,-1,-1,-1,-1,-1,-1,-1,-1,-1,-1,-1,-1,-1,-1,-1,-1,-1,-1,-1,-1,-1,-1,-1,-1,-1,-1,-1,-1,-1,-1,-1,-1,-1,-1,-1,-1,-1,-1,-1,-1,-1,-1,-1,-1,-1,-1,-1,-1],"split_conditions":[2.8006543E3,1.48175E5,1.7E3,1.7E3,2.52025E3,2E0,3.333711E-2,1.7471428E2,2E0,4.350886E3,5.7944083E-1,8.75E2,3.8190258E-1,5.5887175E-1,2E0,3.2666667E3,4E0,8.433E5,3.0615E4,4.2613706E-1,1.5E1,3.840463E3,1.54E4,3.9764102E3,5.601521E-1,1.7950097E-1,1.5364349E-1,3E0,9E0,3.814714E-2,5.68E1,5.100827E-1,5.08412E-2,2E0,3.9301044E-1,6.7667437E-1,-1.0890148E-1,7.2021425E-1,5.66E2,5.649547E-1,3.885246E-1,5.5E-1,2.1078064E3,4E0,4.3373495E-1,2.5275247E3,2.3366666E4,5.5237156E-1,8E0,7.6285845E3,3.4442E4,8.16E2,4.2346133E3,1.1E3,1.2914E4,-2.3076923E-1,3.65E3,1.8503718E-17,3.8E3,4.440112E3,7.775097E-1,6.210526E-1,1.966E3,-9.964385E-2,1.4597586E-2,5.831026E-3,5.588584E-2,6.274124E-2,-2.0086594E-2,9.8220386E-2,-3.096517E-2,6.931576E-2,-2.3744492E-2,1.9205134E-2,-7.826388E-2,-2.730214E-2,-7.627078E-2,8.030482E-2,-3.6009993E-2,-4.0268328E-2,3.6857273E-2,6.6495694E-2,-2.0136878E-2,-1.0057759E-2,-5.5094067E-2,7.964603E-2,-9.560458E-3,-1.8803893E-2,4.1707933E-2,1.0951824E-1,2.4877528E-2,-6.951332E-2,3.876078E-2,-3.9472435E-2,1.7948207E-4,-2.4381498E-2,3.4452002E-2,8.386913E-2,-4.8782416E-2,2.5592651E-2,5.445942E-2,-1.9081568E-2,4.5094904E-2,-6.0854327E-2,-5.802416E-3,-3.869558E-2,4.7433082E-2,5.9838507E-2,-8.310433E-3,1.9826038E-2,9.080601E-2,-7.1893774E-2,5.874113E-2,9.6697204E-2,-3.9951384E-2,-5.0421473E-2,7.276892E-3,2.0618336E-2,9.641753E-2,3.59729E-2,-6.9262944E-2,-6.681301E-3,5.499709E-2],"split_indices":[20,17,21,21,23,45,25,14,45,19,28,13,26,26,45,23,46,16,0,28,6,19,22,19,24,25,30,45,6,31,14,29,0,46,3,5,0,26,18,5,3,41,23,46,3,20,23,29,6,19,0,13,20,21,0,39,19,42,21,19,24,3,0,0,0,0,0,0,0,0,0,0,0,0,0,0,0,0,0,0,0,0,0,0,0,0,0,0,0,0,0,0,0,0,0,0,0,0,0,0,0,0,0,0,0,0,0,0,0,0,0,0,0,0,0,0,0,0,0,0,0,0,0],"split_type":[0,0,0,0,0,0,0,0,0,0,0,0,0,0,0,0,0,0,0,0,0,0,0,0,0,0,0,0,0,0,0,0,0,0,0,0,0,0,0,0,0,0,0,0,0,0,0,0,0,0,0,0,0,0,0,0,0,0,0,0,0,0,0,0,0,0,0,0,0,0,0,0,0,0,0,0,0,0,0,0,0,0,0,0,0,0,0,0,0,0,0,0,0,0,0,0,0,0,0,0,0,0,0,0,0,0,0,0,0,0,0,0,0,0,0,0,0,0,0,0,0,0,0],"sum_hessian":[3.3296628E3,1.4081074E3,1.9215554E3,3.624633E2,1.045644E3,1.1571328E3,7.644226E2,2.6622302E2,9.624025E1,7.099281E2,3.35716E2,3.9471002E2,7.624228E2,3.2921664E2,4.3520593E2,1.4248557E1,2.5197449E2,1.7748203E1,7.849205E1,6.071885E2,1.0273959E2,2.5647403E2,7.9241974E1,2.7497214E2,1.1973788E2,6.1168805E2,1.5073474E2,3.109685E2,1.8248152E1,1.4448537E2,2.9072055E2,1.2998684E1,1.2498734E0,1.0398947E2,1.4798502E2,1.4998481E1,2.7497215E0,6.149377E1,1.6998278E1,5.016992E2,1.0548932E2,8.449144E1,1.8248152E1,1.519846E2,1.0448942E2,6.574334E1,1.3498632E1,6.949296E1,2.0547919E2,8.09918E1,3.8746075E1,4.986995E2,1.12988556E2,1.2648719E2,2.4247543E1,1.7023276E2,1.4073575E2,1.1998785E1,6.249367E0,5.699423E1,8.749114E1,1.6248354E1,2.744722E2,1.124886E1,1.7498227E0,7.6742226E1,2.724724E1,9.998987E0,1.3798602E2,3.249671E0,1.174881E1,5.6494278E1,4.9994936E0,1.3748608E1,3.249671E0,3.5496407E1,4.662028E2,8.499139E0,9.699017E1,7.174274E1,1.2748709E1,1.2248759E1,5.9993925E0,5.4244507E1,9.7740105E1,1.0498937E1,9.399048E1,3.5996353E1,2.9746986E1,9.749013E0,3.7496202E0,6.449347E1,4.9994936E0,1.2073777E2,8.474142E1,5.699423E1,2.399757E1,3.4496506E1,4.2495694E0,3.1346826E2,1.8523125E2,8.649124E1,2.6497316E1,7.59923E1,5.0494884E1,6.499342E0,1.7748203E1,1.519846E2,1.8248152E1,1.3248658E1,1.2748709E2,9.749013E0,2.249772E0,4.499544E0,1.7498227E0,2.5747393E1,3.1246836E1,7.349255E1,1.3998582E1,8.749114E0,7.4992404E0,1.7498228E1,2.5697397E2],"tree_param":{"num_deleted":"0","num_feature":"47","num_nodes":"123","size_leaf_vector":"1"}},{"base_weights":[1.302051E-4,-3.7591207E-1,2.755566E-1,7.716151E-2,-5.330327E-1,6.855374E-2,5.884206E-1,-5.2179344E-2,4.3190485E-1,-7.139033E-1,-1.4999741E-1,-9.117438E-2,3.4273607E-1,5.404224E-1,1.2078859E0,8.371977E-2,-3.670695E-1,-2.5628805E-1,5.886614E-1,-8.005359E-1,-1.9974254E-1,-2.8699386E-1,2.9134837E-1,-2.4403904E-1,2.1041386E-1,2.8030995E-1,1.0023E0,1.5125562E-1,6.527071E-1,1.5917945E0,9.2245984E-1,-3.2002047E-1,2.8570455E-1,-6.458948E-1,1.325679E-1,-5.818555E-1,6.915327E-1,7.594899E-1,-3.712259E-2,-9.008473E-1,-3.2014132E-1,-2.995872E-1,8.526096E-1,-4.8422867E-1,1.5644424E-3,1.0877589E-1,1.112606E0,-1.3149515E-1,-7.068796E-1,-3.2691557E-2,6.422956E-1,-1.5819155E-1,4.1428807E-1,1.2088854E0,-1.3699737E-1,-5.304712E-1,3.264139E-1,6.986153E-1,-2.563433E-2,-1.7874823E-3,1.284499E-1,1.1402658E0,-1.09534815E-1,6.642582E-2,-3.3374995E-2,4.0853683E-2,4.5079956E-5,-6.5968715E-2,1.4346312E-3,9.187963E-2,-7.317922E-3,-9.134281E-2,-1.8324932E-3,-4.771085E-2,9.4868906E-2,6.423955E-2,-2.226777E-2,-4.3171197E-2,3.5814073E-2,-5.3270802E-2,-7.827454E-2,7.497065E-2,-3.336023E-2,-3.426596E-2,2.9328655E-2,1.1717161E-1,-3.5206962E-2,-9.318278E-3,-5.1072348E-2,7.424591E-2,-8.852063E-3,-1.7436588E-2,3.8681947E-2,1.0224753E-1,2.3402683E-2,4.2217847E-2,-1.53576825E-2,-8.493058E-2,-3.425612E-2,-1.8661497E-2,3.9676398E-2,2.879784E-2,8.828914E-2,-4.6537187E-2,1.5565439E-2,3.541165E-2,-1.4106396E-2,9.782241E-2,-3.001077E-2,4.0689033E-2,-9.457752E-2,-5.851474E-2,5.994676E-2,1.1701262E-2,5.2980345E-2,5.874769E-2,2.5705881E-2,-3.6646295E-2,5.8643118E-2,9.579459E-2,5.680907E-4,7.2560854E-2,-5.7502955E-2],"categories":[],"categories_nodes":[],"categories_segments":[],"categories_sizes":[],"default_left":[0,0,0,0,0,0,0,0,0,0,0,0,0,0,0,0,0,0,0,0,0,0,0,0,0,0,0,0,0,0,0,0,0,0,0,0,0,0,0,0,0,0,0,0,0,0,0,0,0,0,0,0,0,0,0,0,0,0,0,0,0,0,0,0,0,0,0,0,0,0,0,0,0,0,0,0,0,0,0,0,0,0,0,0,0,0,0,0,0,0,0,0,0,0,0,0,0,0,0,0,0,0,0,0,0,0,0,0,0,0,0,0,0,0,0,0,0,0,0,0,0,0,0],"id":1,"left_children":[1,3,5,7,9,11,13,15,17,19,21,23,25,27,29,31,33,35,37,39,41,43,45,47,49,51,53,55,57,59,61,63,65,67,69,71,73,75,77,79,81,83,85,87,89,91,93,95,97,99,101,103,105,107,109,111,113,115,117,-1,-1,119,121,-1,-1,-1,-1,-1,-1,-1,-1,-1,-1,-1,-1,-1,-1,-1,-1,-1,-1,-1,-1,-1,-1,-1,-1,-1,-1,-1,-1,-1,-1,-1,-1,-1,-1,-1,-1,-1,-1,-1,-1,-1,-1,-1,-1,-1,-1,-1,-1,-1,-1,-1,-1,-1,-1,-1,-1,-1,-1,-1,-1],"loss_changes":[3.448311E2,1.0024356E2,1.2442239E2,1.6692589E1,7.230917E1,5.0732243E1,2.2096039E1,1.1462381E1,1.06346855E1,3.1454102E1,2.0431343E1,3.3813118E1,1.7274586E1,3.1008972E1,4.471794E0,1.53752E1,1.1330739E1,6.1808248E0,8.522135E0,2.8965454E1,1.1148714E1,1.4645773E1,1.1906101E1,2.5246433E1,2.5940523E1,2.3030558E1,8.751102E0,1.9363209E1,1.7213623E1,4.285965E0,7.648344E0,9.882584E0,9.263497E0,8.09461E0,7.5972733E0,5.1045756E0,4.7972426E0,6.6574097E0,5.26107E0,1.291156E1,1.7952429E1,1.0545461E1,9.406325E0,1.0740505E1,1.2583648E1,9.388352E0,2.4808178E0,2.0087952E1,9.585964E0,1.9423286E1,1.1840359E1,1.5718812E1,1.0535324E1,5.2781067E0,5.646822E0,1.1658962E1,8.208492E0,1.5319138E1,1.3828888E1,0E0,0E0,4.292595E0,5.5160737E0,0E0,0E0,0E0,0E0,0E0,0E0,0E0,0E0,0E0,0E0,0E0,0E0,0E0,0E0,0E0,0E0,0E0,0E0,0E0,0E0,0E0,0E0,0E0,0E0,0E0,0E0,0E0,0E0,0E0,0E0,0E0,0E0,0E0,0E0,0E0,0E0,0E0,0E0,0E0,0E0,0E0,0E0,0E0,0E0,0E0,0E0,0E0,0E0,0E0,0E0,0E0,0E0,0E0,0E0,0E0,0E0,0E0,0E0,0E0,0E0],"parents":[2147483647,0,0,1,1,2,2,3,3,4,4,5,5,6,6,7,7,8,8,9,9,10,10,11,11,12,12,13,13,14,14,15,15,16,16,17,17,18,18,19,19,20,20,21,21,22,22,23,23,24,24,25,25,26,26,27,27,28,28,29,29,30,30,31,31,32,32,33,33,34,34,35,35,36,36,37,37,38,38,39,39,40,40,41,41,42,42,43,43,44,44,45,45,46,46,47,47,48,48,49,49,50,50,51,51,52,52,53,53,54,54,55,55,56,56,57,57,58,58,61,61,62,62],"right_children":[2,4,6,8,10,12,14,16,18,20,22,24,26,28,30,32,34,36,38,40,42,44,46,48,50,52,54,56,58,60,62,64,66,68,70,72,74,76,78,80,82,84,86,88,90,92,94,96,98,100,102,104,106,108,110,112,114,116,118,-1,-1,120,122,-1,-1,-1,-1,-1,-1,-1,-1,-1,-1,-1,-1,-1,-1,-1,-1,-1,-1,-1,-1,-1,-1,-1,-1,-1,-1,-1,-1,-1,-1,-1,-1,-1,-1,-1,-1,-1,-1,-1,-1,-1,-1,-1,-1,-1,-1,-1,-1,-1,-1,-1,-1,-1,-1,-1,-1,-1,-1,-1,-1],"split_conditions":[2.8006543E3,1.48175E5,1.7E3,1.7E3,2.52025E3,3.5563066E3,7.529964E-1,5.66E2,2E0,4.350886E3,5.7944083E-1,7.95E2,6.6225666E-1,2E0,3.333477E-2,1.8623E3,1.2006666E3,5.601521E-1,3.0615E4,4.2613706E-1,2.1E3,3.840463E3,1.54E4,2.977089E-1,1.5454546E-1,2E0,5.0000127E-2,4.1599204E3,5.5887175E-1,1.25E-2,5.648493E3,1.65E2,6.636E5,2.2E3,4.2613637E-1,3E3,2.799961E3,7.2021425E-1,4.151919E-1,4.47E2,3.885246E-1,1.5E1,7.302632E-1,4E0,4.3373495E-1,2.5275247E3,2.3366666E4,6.636E5,1.486E2,1.931507E-1,4.7555554E2,1.4666666E3,3.5525763E-1,4.722222E-1,7.9992867E-1,2.2508038E-2,1.31E4,4.0154E5,9E0,-1.7874823E-3,1.284499E-1,-1.4305556E-1,2.1666667E-1,6.642582E-2,-3.3374995E-2,4.0853683E-2,4.5079956E-5,-6.5968715E-2,1.4346312E-3,9.187963E-2,-7.317922E-3,-9.134281E-2,-1.8324932E-3,-4.771085E-2,9.4868906E-2,6.423955E-2,-2.226777E-2,-4.3171197E-2,3.5814073E-2,-5.3270802E-2,-7.827454E-2,7.497065E-2,-3.336023E-2,-3.426596E-2,2.9328655E-2,1.1717161E-1,-3.5206962E-2,-9.318278E-3,-5.1072348E-2,7.424591E-2,-8.852063E-3,-1.7436588E-2,3.8681947E-2,1.0224753E-1,2.3402683E-2,4.2217847E-2,-1.53576825E-2,-8.493058E-2,-3.425612E-2,-1.8661497E-2,3.9676398E-2,2.879784E-2,8.828914E-2,-4.6537187E-2,1.5565439E-2,3.541165E-2,-1.4106396E-2,9.782241E-2,-3.001077E-2,4.0689033E-2,-9.457752E-2,-5.851474E-2,5.994676E-2,1.1701262E-2,5.2980345E-2,5.874769E-2,2.5705881E-2,-3.6646295E-2,5.8643118E-2,9.579459E-2,5.680907E-4,7.2560854E-2,-5.7502955E-2],"split_indices":[20,17,21,21,23,20,24,18,45,19,28,13,24,45,25,20,18,24,0,28,21,19,22,25,30,45,26,19,26,43,19,2,16,23,3,22,19,26,28,18,3,6,5,46,3,20,23,16,14,24,14,23,26,35,24,32,22,17,6,0,0,38,43,0,0,0,0,0,0,0,0,0,0,0,0,0,0,0,0,0,0,0,0,0,0,0,0,0,0,0,0,0,0,0,0,0,0,0,0,0,0,0,0,0,0,0,0,0,0,0,0,0,0,0,0,0,0,0,0,0,0,0,0],"split_type":[0,0,0,0,0,0,0,0,0,0,0,0,0,0,0,0,0,0,0,0,0,0,0,0,0,0,0,0,0,0,0,0,0,0,0,0,0,0,0,0,0,0,0,0,0,0,0,0,0,0,0,0,0,0,0,0,0,0,0,0,0,0,0,0,0,0,0,0,0,0,0,0,0,0,0,0,0,0,0,0,0,0,0,0,0,0,0,0,0,0,0,0,0,0,0,0,0,0,0,0,0,0,0,0,0,0,0,0,0,0,0,0,0,0,0,0,0,0,0,0,0,0,0],"sum_hessian":[3.3273865E3,1.4065903E3,1.9207961E3,3.6231805E2,1.0442723E3,1.156699E3,7.6409717E2,2.661365E2,9.618154E1,7.087394E2,3.3553296E2,7.3132465E2,4.2537427E2,7.1088763E2,5.3209583E1,1.8641734E2,7.971917E1,1.7725973E1,7.845557E1,6.0606464E2,1.0267472E2,2.5631952E2,7.9213425E1,4.8545508E2,2.458696E2,3.898965E2,3.547776E1,1.5970714E2,5.511805E2,2.0738548E1,3.2471035E1,6.1967773E1,1.2444957E2,5.0977932E1,2.8741236E1,1.3481365E1,4.2446084E0,6.1463425E1,1.6992146E1,5.006487E2,1.0541594E2,9.443068E1,8.2440405E0,1.5184953E2,1.0447E2,6.57329E1,1.3480524E1,3.915341E2,9.3920975E1,1.5790787E2,8.796174E1,9.120568E1,2.9869083E2,2.9980421E1,5.4973407E0,3.223152E1,1.2747561E2,5.1621466E2,3.4965794E1,1.4994086E0,1.923914E1,2.6725592E1,5.745444E0,5.248455E0,5.671932E1,6.473156E1,5.9718014E1,3.748362E1,1.3494312E1,4.248788E0,2.4492447E1,5.7431912E0,7.7381744E0,1.247218E0,2.9973903E0,5.6465828E1,4.997596E0,8.24577E0,8.746374E0,2.1702457E2,2.8362415E2,8.492308E0,9.692363E1,7.7189285E1,1.724139E1,5.2461433E0,2.9978974E0,5.423765E1,9.761188E1,1.0490705E1,9.3979294E1,3.5986366E1,2.9746534E1,9.730546E0,3.7499788E0,3.6733856E1,3.5480023E2,3.346406E1,6.0456913E1,1.1443422E2,4.3473648E1,6.047394E1,2.7487797E1,3.9976513E1,5.1229164E1,2.727091E2,2.5981733E1,2.8480927E1,1.4994938E0,3.7485573E0,1.7487833E0,2.7483486E1,4.748037E0,8.898372E1,3.849189E1,4.160139E2,1.002008E2,2.2475182E1,1.2490612E1,2.372812E1,2.9974706E0,1.9983078E0,3.7471359E0],"tree_param":{"num_deleted":"0","num_feature":"47","num_nodes":"123","size_leaf_vector":"1"}},{"base_weights":[3.1418406E-4,-3.4839267E-1,2.554156E-1,7.883854E-2,-4.9217153E-1,5.5086415E-2,5.3496635E-1,-4.7080398E-2,4.3169433E-1,-6.592671E-1,-1.4023526E-1,-2.3164608E-1,2.0499301E-1,4.8913813E-1,1.1307749E0,7.284479E-2,-3.7643847E-1,5.9261376E-1,-1.02361195E-1,-7.417229E-1,-1.729501E-1,-2.8741506E-1,2.0159887E-1,-4.098176E-1,2.3439975E-1,3.474741E-1,-3.6289003E-1,1.4687626E-1,5.884826E-1,1.1925936E0,-2.7853483E-2,-8.695817E-2,3.4461868E-1,1.0114757E0,-4.5339578E-1,1.0803969E0,2.8900835E-1,4.102511E-1,-7.54812E-1,-8.329159E-1,-3.1003708E-1,2.3131034E-1,-4.1873613E-1,-5.448074E-1,-5.5105455E-2,-1.4791568E-1,4.7545627E-1,2.4344152E-2,-5.2189124E-1,-1.9394226E-1,6.8575305E-1,4.3764547E-1,-4.1630737E-2,-9.5938736E-1,-2.2970594E-1,-6.398214E-1,2.8906643E-1,6.2186116E-1,-1.68037E-1,6.586588E-2,1.2743762E0,1.7002595E-3,-7.4454546E-2,5.7741936E-2,5.8872583E-3,9.736412E-2,1.5838927E-2,-5.256529E-2,-2.4087196E-5,1.0366388E-1,7.574678E-3,-1.5114541E-2,4.5037773E-2,-2.9600862E-2,6.794125E-2,-8.278204E-2,5.7629142E-2,-4.6454296E-2,-7.1692236E-2,7.017744E-2,-3.1920366E-2,3.472145E-2,-4.6817053E-2,-4.7005836E-2,4.0147677E-2,3.585397E-2,-4.6852708E-2,-1.3417362E-2,4.2378407E-2,-2.8118644E-2,4.3993756E-2,8.374397E-2,2.0257007E-2,-4.1762095E-2,3.470186E-2,-7.886653E-2,-2.751663E-2,-3.159755E-2,3.28027E-2,6.231141E-2,-7.073656E-2,2.471439E-2,5.442123E-2,-1.6708646E-2,4.014571E-2,-9.1936685E-2,4.4573867E-3,-3.7802435E-2,7.243898E-3,-8.547932E-2,3.6294654E-3,-7.7947644E-3,3.2798324E-2,5.681325E-2,3.380505E-2,-4.31856E-2,5.0038148E-2,7.194969E-2,-6.9990814E-2,1.1631717E-2,1.01534836E-1],"categories":[],"categories_nodes":[],"categories_segments":[],"categories_sizes":[],"default_left":[0,0,0,0,0,0,0,0,0,0,0,0,0,0,0,0,0,0,0,0,0,0,0,0,0,0,0,0,0,0,0,0,0,0,0,0,0,0,0,0,0,0,0,0,0,0,0,0,0,0,0,0,0,0,0,0,0,0,0,0,0,0,0,0,0,0,0,0,0,0,0,0,0,0,0,0,0,0,0,0,0,0,0,0,0,0,0,0,0,0,0,0,0,0,0,0,0,0,0,0,0,0,0,0,0,0,0,0,0,0,0,0,0,0,0,0,0,0,0,0,0],"id":2,"left_children":[1,3,5,7,9,11,13,15,17,19,21,23,25,27,29,31,33,35,37,39,41,43,45,47,49,51,53,55,57,59,-1,61,63,65,67,69,71,73,75,77,79,81,83,85,87,89,91,93,95,97,99,101,103,105,107,109,111,113,115,117,119,-1,-1,-1,-1,-1,-1,-1,-1,-1,-1,-1,-1,-1,-1,-1,-1,-1,-1,-1,-1,-1,-1,-1,-1,-1,-1,-1,-1,-1,-1,-1,-1,-1,-1,-1,-1,-1,-1,-1,-1,-1,-1,-1,-1,-1,-1,-1,-1,-1,-1,-1,-1,-1,-1,-1,-1,-1,-1,-1,-1],"loss_changes":[2.95707E2,8.630888E1,1.0748191E2,1.5770992E1,6.171028E1,4.816554E1,2.1326462E1,1.038246E1,8.081564E0,2.8436035E1,1.7143946E1,3.2048615E1,5.9650368E1,2.5273392E1,5.686798E0,8.4130335E0,7.950306E0,1.0330975E1,7.822629E0,2.3706757E1,1.048731E1,1.4189575E1,9.9100685E0,1.3575752E1,2.0831554E1,2.0670525E1,1.154084E1,1.9102526E1,1.469278E1,4.935791E0,0E0,1.2171595E1,8.051211E0,6.423583E-1,7.528493E0,7.901743E0,7.0981684E0,5.634688E0,6.2885847E0,1.2590088E1,1.59127655E1,8.252493E0,1.3311749E1,9.508743E0,9.782285E0,7.876956E0,7.3185787E0,1.5070685E1,1.7807022E1,8.180613E0,1.3154026E1,1.4642448E1,1.1788127E1,7.322386E0,1.0999151E1,9.068648E0,8.430078E0,1.2507538E1,8.966602E0,5.1272354E0,4.3001175E0,0E0,0E0,0E0,0E0,0E0,0E0,0E0,0E0,0E0,0E0,0E0,0E0,0E0,0E0,0E0,0E0,0E0,0E0,0E0,0E0,0E0,0E0,0E0,0E0,0E0,0E0,0E0,0E0,0E0,0E0,0E0,0E0,0E0,0E0,0E0,0E0,0E0,0E0,0E0,0E0,0E0,0E0,0E0,0E0,0E0,0E0,0E0,0E0,0E0,0E0,0E0,0E0,0E0,0E0,0E0,0E0,0E0,0E0,0E0,0E0],"parents":[2147483647,0,0,1,1,2,2,3,3,4,4,5,5,6,6,7,7,8,8,9,9,10,10,11,11,12,12,13,13,14,14,15,15,16,16,17,17,18,18,19,19,20,20,21,21,22,22,23,23,24,24,25,25,26,26,27,27,28,28,29,29,31,31,32,32,33,33,34,34,35,35,36,36,37,37,38,38,39,39,40,40,41,41,42,42,43,43,44,44,45,45,46,46,47,47,48,48,49,49,50,50,51,51,52,52,53,53,54,54,55,55,56,56,57,57,58,58,59,59,60,60],"right_children":[2,4,6,8,10,12,14,16,18,20,22,24,26,28,30,32,34,36,38,40,42,44,46,48,50,52,54,56,58,60,-1,62,64,66,68,70,72,74,76,78,80,82,84,86,88,90,92,94,96,98,100,102,104,106,108,110,112,114,116,118,120,-1,-1,-1,-1,-1,-1,-1,-1,-1,-1,-1,-1,-1,-1,-1,-1,-1,-1,-1,-1,-1,-1,-1,-1,-1,-1,-1,-1,-1,-1,-1,-1,-1,-1,-1,-1,-1,-1,-1,-1,-1,-1,-1,-1,-1,-1,-1,-1,-1,-1,-1,-1,-1,-1,-1,-1,-1,-1,-1,-1],"split_conditions":[2.8006543E3,1.4640683E5,1.6E3,2.7E3,2.52025E3,2E0,7.529964E-1,8.433E5,5.41633E-2,4.350886E3,4.2613706E-1,9.24E2,3.8190258E-1,2E0,5.705844E-1,3.1341255E-1,1.4597806E3,5.1778096E-1,5.759E4,4.2613706E-1,4E0,3.5951802E3,7E0,4.8E2,1.5169856E-1,1.7950097E-1,3.5906748E3,3.8883367E3,6.919901E-1,4.830918E-3,-2.7853483E-2,9E0,2E0,1.0714286E-1,2.3187852E3,1.1E3,2.1E3,1.9822155E3,3.3340073E-1,4E0,3.885246E-1,7.76E2,5.3571427E-1,1.1111111E-1,5.994673E-1,1.405093E-1,4.75E2,1.2106538E-2,1.2E3,3.9944197E3,3.7076E4,1.4369503E-1,4.2346133E3,4.6029943E-1,9.46E2,3.94E2,1.1179E4,6.975089E-1,9E0,3.124681E3,1.25E-2,1.7002595E-3,-7.4454546E-2,5.7741936E-2,5.8872583E-3,9.736412E-2,1.5838927E-2,-5.256529E-2,-2.4087196E-5,1.0366388E-1,7.574678E-3,-1.5114541E-2,4.5037773E-2,-2.9600862E-2,6.794125E-2,-8.278204E-2,5.7629142E-2,-4.6454296E-2,-7.1692236E-2,7.017744E-2,-3.1920366E-2,3.472145E-2,-4.6817053E-2,-4.7005836E-2,4.0147677E-2,3.585397E-2,-4.6852708E-2,-1.3417362E-2,4.2378407E-2,-2.8118644E-2,4.3993756E-2,8.374397E-2,2.0257007E-2,-4.1762095E-2,3.470186E-2,-7.886653E-2,-2.751663E-2,-3.159755E-2,3.28027E-2,6.231141E-2,-7.073656E-2,2.471439E-2,5.442123E-2,-1.6708646E-2,4.014571E-2,-9.1936685E-2,4.4573867E-3,-3.7802435E-2,7.243898E-3,-8.547932E-2,3.6294654E-3,-7.7947644E-3,3.2798324E-2,5.681325E-2,3.380505E-2,-4.31856E-2,5.0038148E-2,7.194969E-2,-6.9990814E-2,1.1631717E-2,1.01534836E-1],"split_indices":[20,17,21,23,23,45,24,16,31,19,28,13,26,45,29,28,20,3,17,28,46,19,6,22,24,25,19,19,26,32,0,8,7,44,20,15,21,20,27,46,3,15,41,34,24,26,13,32,23,20,0,24,20,29,21,2,0,5,6,20,43,0,0,0,0,0,0,0,0,0,0,0,0,0,0,0,0,0,0,0,0,0,0,0,0,0,0,0,0,0,0,0,0,0,0,0,0,0,0,0,0,0,0,0,0,0,0,0,0,0,0,0,0,0,0,0,0,0,0,0,0],"split_type":[0,0,0,0,0,0,0,0,0,0,0,0,0,0,0,0,0,0,0,0,0,0,0,0,0,0,0,0,0,0,0,0,0,0,0,0,0,0,0,0,0,0,0,0,0,0,0,0,0,0,0,0,0,0,0,0,0,0,0,0,0,0,0,0,0,0,0,0,0,0,0,0,0,0,0,0,0,0,0,0,0,0,0,0,0,0,0,0,0,0,0,0,0,0,0,0,0,0,0,0,0,0,0,0,0,0,0,0,0,0,0,0,0,0,0,0,0,0,0,0,0],"sum_hessian":[3.3222087E3,1.4034369E3,1.9187717E3,3.534955E2,1.0499414E3,1.1184647E3,8.0030707E2,2.6116397E2,9.2331535E1,7.113342E2,3.3860715E2,3.8380322E2,7.3466144E2,7.448369E2,5.547015E1,1.9202357E2,6.91404E1,7.086818E1,2.1463358E1,6.077621E2,1.0357215E2,2.3680696E2,1.018002E2,2.7774185E2,1.0606137E2,5.8761725E2,1.4704424E2,1.6811731E2,5.767196E2,5.347553E1,1.9946221E0,1.213499E2,7.067367E1,2.9943528E0,6.614605E1,2.620605E1,4.4662125E1,1.222765E1,9.235707E0,5.009976E2,1.06764465E2,3.918345E1,6.43887E1,1.11700676E2,1.2510628E2,4.4924507E1,5.687569E1,5.714619E1,2.2059566E2,5.4710487E1,5.1350883E1,4.7696118E2,1.1065603E2,2.5706768E1,1.2133746E2,2.519895E1,1.4291837E2,5.525198E2,2.4199825E1,3.740979E0,4.973455E1,1.0911796E2,1.2231945E1,2.6474045E1,4.4199623E1,1.7465022E0,1.2478505E0,4.2425705E1,2.3720343E1,1.9718752E1,6.487299E0,1.748313E1,2.7178997E1,4.7374697E0,7.4901805E0,7.738312E0,1.4973949E0,1.8530232E2,3.1569528E2,8.461301E0,9.830316E1,3.1195847E1,7.9876003E0,5.314467E1,1.1244032E1,7.7317348E0,1.0396895E2,1.0488164E2,2.022464E1,3.4692295E1,1.0232214E1,1.2721821E1,4.415387E1,2.4454071E1,3.269212E1,4.8631668E1,1.7196399E2,4.0468838E1,1.4241651E1,4.760158E1,3.7493043E0,3.4832492E2,1.2863628E2,8.4679985E1,2.5976042E1,2.0216656E1,5.4901114E0,6.562179E1,5.5715675E1,1.4216415E1,1.0982534E1,3.9226845E1,1.0369151E2,3.062977E2,2.4622209E2,1.6469566E1,7.7302585E0,1.9958745E0,1.7451043E0,3.4908502E0,4.6243702E1],"tree_param":{"num_deleted":"0","num_feature":"47","num_nodes":"121","size_leaf_vector":"1"}},{"base_weights":[3.46386E-4,-4.052531E-1,1.9217308E-1,-5.872795E-1,7.8806326E-2,1.581067E-2,4.8431295E-1,-7.1022797E-1,8.330396E-2,-1.11518726E-1,3.7523964E-1,-1.0914266E-1,3.041982E-1,7.983959E-1,3.9529902E-1,-7.6494807E-1,-6.1731145E-2,1.8149306E-1,-8.469775E-1,-3.0035585E-1,3.2240435E-1,-9.548468E-1,4.606707E-1,3.8004282E-1,-1.849453E-1,2.4882743E-1,9.18505E-1,6.631343E-1,1.3547455E0,3.4908524E-1,9.9993587E-1,-5.365256E-1,-9.014378E-1,-7.740217E-1,1.7589408E-1,8.7308E-2,1.2326965E0,-1.2241784E0,-2.4003085E-1,-4.90657E-1,4.3519393E-1,6.794139E-1,-3.7058544E-1,-1.1470444E-1,1.6748752E-2,6.111324E-1,-1.09133676E-1,6.3383794E-1,1.097454E-1,-3.1454602E-1,9.144793E-2,-1.161475E-1,3.6108595E-1,1.2066706E0,2.4777606E-1,7.2364146E-1,-4.1013777E-1,1.4192394E0,-5.3935684E-3,2.0009555E-2,4.4925755E-1,-3.903059E-2,1.0615633E0,-5.8127396E-2,-1.5156824E-2,-7.07213E-2,1.7037999E-2,-7.35737E-2,5.0257877E-2,3.967791E-4,9.762346E-2,-1.0583743E-2,3.3599634E-2,1.2790863E-1,-9.552821E-3,-1.0614003E-1,-1.446354E-2,-6.4193115E-2,8.256396E-2,4.3692105E-2,-4.2844463E-2,6.162485E-2,-1.3101586E-2,-2.8761666E-2,6.9205746E-2,-8.7169446E-2,3.2831654E-2,5.6506693E-2,8.359901E-3,-3.4543183E-2,6.605763E-2,-7.641982E-2,5.293667E-2,-5.838948E-2,2.5539866E-2,-3.526672E-2,-1.9590717E-3,-7.5431643E-3,4.1757017E-2,-3.941659E-2,1.5652874E-2,2.213457E-2,6.360695E-2,1.1375902E-1,2.899524E-2,-1.9164529E-2,6.487137E-2,7.0187375E-2,3.7336826E-2,3.6744338E-2,-7.237952E-2,2.1219425E-2,1.1320914E-1,-2.8347181E-2,2.4676275E-2,4.9992252E-2,2.1912739E-2,-9.940179E-3,8.679744E-2],"categories":[],"categories_nodes":[],"categories_segments":[],"categories_sizes":[],"default_left":[0,0,0,0,0,0,0,0,0,0,0,0,0,0,0,0,0,0,0,0,0,0,0,0,0,0,0,0,0,0,0,0,0,0,0,0,0,0,0,0,0,0,0,0,0,0,0,0,0,0,0,0,0,0,0,0,0,0,0,0,0,0,0,0,0,0,0,0,0,0,0,0,0,0,0,0,0,0,0,0,0,0,0,0,0,0,0,0,0,0,0,0,0,0,0,0,0,0,0,0,0,0,0,0,0,0,0,0,0,0,0,0,0,0,0,0,0,0,0],"id":3,"left_children":[1,3,5,7,9,11,13,15,17,19,21,23,25,27,29,31,33,35,37,39,41,43,45,47,49,51,53,55,57,59,61,63,65,67,69,71,73,75,77,79,81,83,85,-1,-1,87,89,91,93,95,97,99,101,103,105,107,109,111,-1,113,115,-1,117,-1,-1,-1,-1,-1,-1,-1,-1,-1,-1,-1,-1,-1,-1,-1,-1,-1,-1,-1,-1,-1,-1,-1,-1,-1,-1,-1,-1,-1,-1,-1,-1,-1,-1,-1,-1,-1,-1,-1,-1,-1,-1,-1,-1,-1,-1,-1,-1,-1,-1,-1,-1,-1,-1,-1,-1],"loss_changes":[2.580645E2,9.388454E1,1.1601202E2,6.3879272E1,1.6511616E1,5.0669014E1,2.3382507E1,2.316919E1,1.1190615E1,1.4727282E1,1.3435991E1,3.6452194E1,1.42294655E1,1.3113678E1,1.8161224E1,1.8323944E1,8.937084E0,1.0794743E1,2.3875332E0,1.7700163E1,1.3765729E1,5.234327E0,9.338234E0,8.983101E0,3.0482481E1,1.6073284E1,6.421974E0,1.0151054E1,3.364502E0,2.0327995E1,4.9093018E0,1.8038147E1,1.7837067E1,4.600291E0,7.6378946E0,8.478329E0,5.990247E0,1.1020346E0,5.6765437E0,8.958849E0,6.3206725E0,9.769127E0,1.2808086E1,0E0,0E0,6.0093803E0,8.560054E0,8.791477E0,1.3613364E1,2.5985687E1,2.4374126E1,1.2451328E1,9.369755E0,5.5336266E0,3.8579316E0,6.434349E0,4.8363347E0,3.0555038E0,0E0,1.7958397E1,1.5948891E1,0E0,5.299736E0,0E0,0E0,0E0,0E0,0E0,0E0,0E0,0E0,0E0,0E0,0E0,0E0,0E0,0E0,0E0,0E0,0E0,0E0,0E0,0E0,0E0,0E0,0E0,0E0,0E0,0E0,0E0,0E0,0E0,0E0,0E0,0E0,0E0,0E0,0E0,0E0,0E0,0E0,0E0,0E0,0E0,0E0,0E0,0E0,0E0,0E0,0E0,0E0,0E0,0E0,0E0,0E0,0E0,0E0,0E0,0E0],"parents":[2147483647,0,0,1,1,2,2,3,3,4,4,5,5,6,6,7,7,8,8,9,9,10,10,11,11,12,12,13,13,14,14,15,15,16,16,17,17,18,18,19,19,20,20,21,21,22,22,23,23,24,24,25,25,26,26,27,27,28,28,29,29,30,30,31,31,32,32,33,33,34,34,35,35,36,36,37,37,38,38,39,39,40,40,41,41,42,42,45,45,46,46,47,47,48,48,49,49,50,50,51,51,52,52,53,53,54,54,55,55,56,56,57,57,59,59,60,60,62,62],"right_children":[2,4,6,8,10,12,14,16,18,20,22,24,26,28,30,32,34,36,38,40,42,44,46,48,50,52,54,56,58,60,62,64,66,68,70,72,74,76,78,80,82,84,86,-1,-1,88,90,92,94,96,98,100,102,104,106,108,110,112,-1,114,116,-1,118,-1,-1,-1,-1,-1,-1,-1,-1,-1,-1,-1,-1,-1,-1,-1,-1,-1,-1,-1,-1,-1,-1,-1,-1,-1,-1,-1,-1,-1,-1,-1,-1,-1,-1,-1,-1,-1,-1,-1,-1,-1,-1,-1,-1,-1,-1,-1,-1,-1,-1,-1,-1,-1,-1,-1,-1],"split_conditions":[3.7918381E3,4.2613706E-1,1.7E3,6.5E1,1.5E3,3.5563066E3,6.3095236E-1,1.28E4,8.3998954E-1,1.2764E3,1E0,6.904E5,6.9235617E-1,3.6657292E-1,7.529964E-1,2.258375E5,3.9889807E-1,4.6818182E-1,2E0,4.7E1,5.702247E-1,2.1164E4,8.4070796E-1,8.37E2,1.4948146E-1,2E0,4.0007822E-2,5.869757E-1,1.4E1,2E0,4.102019E-1,2.47E2,6.438356E-2,2.9148645E3,5.1E4,3.2270908E3,5.225554E-2,3.1666666E-1,8.333333E-1,3.6862367E-1,7.05E2,1.5016667E2,4.000021E-2,-1.1470444E-1,1.6748752E-2,8.4E3,6.5E3,1.5774647E3,1.7272727E-1,1.9408457E-1,6.68E2,1.4666666E3,4.996817E-1,-2.2453703E-1,-2.5246912E-1,3.3333782E-2,6.25E-2,-1.25E-1,-5.3935684E-3,3.0922812E3,4E0,-3.903059E-2,7.7922076E-2,-5.8127396E-2,-1.5156824E-2,-7.07213E-2,1.7037999E-2,-7.35737E-2,5.0257877E-2,3.967791E-4,9.762346E-2,-1.0583743E-2,3.3599634E-2,1.2790863E-1,-9.552821E-3,-1.0614003E-1,-1.446354E-2,-6.4193115E-2,8.256396E-2,4.3692105E-2,-4.2844463E-2,6.162485E-2,-1.3101586E-2,-2.8761666E-2,6.9205746E-2,-8.7169446E-2,3.2831654E-2,5.6506693E-2,8.359901E-3,-3.4543183E-2,6.605763E-2,-7.641982E-2,5.293667E-2,-5.838948E-2,2.5539866E-2,-3.526672E-2,-1.9590717E-3,-7.5431643E-3,4.1757017E-2,-3.941659E-2,1.5652874E-2,2.213457E-2,6.360695E-2,1.1375902E-1,2.899524E-2,-1.9164529E-2,6.487137E-2,7.0187375E-2,3.7336826E-2,3.6744338E-2,-7.237952E-2,2.1219425E-2,1.1320914E-1,-2.8347181E-2,2.4676275E-2,4.9992252E-2,2.1912739E-2,-9.940179E-3,8.679744E-2],"split_indices":[19,28,21,12,21,20,5,22,24,18,45,16,24,24,24,17,29,42,7,12,3,0,33,21,24,45,27,25,1,45,3,14,31,20,23,19,25,44,37,3,21,14,27,0,0,22,22,20,43,28,2,23,28,38,38,26,36,40,0,20,46,0,34,0,0,0,0,0,0,0,0,0,0,0,0,0,0,0,0,0,0,0,0,0,0,0,0,0,0,0,0,0,0,0,0,0,0,0,0,0,0,0,0,0,0,0,0,0,0,0,0,0,0,0,0,0,0,0,0],"split_type":[0,0,0,0,0,0,0,0,0,0,0,0,0,0,0,0,0,0,0,0,0,0,0,0,0,0,0,0,0,0,0,0,0,0,0,0,0,0,0,0,0,0,0,0,0,0,0,0,0,0,0,0,0,0,0,0,0,0,0,0,0,0,0,0,0,0,0,0,0,0,0,0,0,0,0,0,0,0,0,0,0,0,0,0,0,0,0,0,0,0,0,0,0,0,0,0,0,0,0,0,0,0,0,0,0,0,0,0,0,0,0,0,0,0,0,0,0,0,0],"sum_hessian":[3.3148186E3,1.063993E3,2.2508257E3,7.730725E2,2.909205E2,1.4041849E3,8.466407E2,6.53244E2,1.1982846E2,1.7754898E2,1.13371544E2,9.801322E2,4.240528E2,1.851997E2,6.61441E2,6.022469E2,5.0997105E1,1.0911638E2,1.0712081E1,1.2392597E2,5.3623005E1,6.228135E0,1.071434E2,1.309627E2,8.491695E2,3.9027985E2,3.3772964E1,1.507426E2,3.4457115E1,6.159406E2,4.5500397E1,2.2710547E2,3.7514145E2,1.21924515E1,3.8804653E1,1.01137764E2,7.978621E0,5.979214E0,4.732867E0,9.87185E1,2.5207472E1,3.540361E1,1.821939E1,3.9861336E0,2.2420018E0,8.470405E1,2.2439356E1,6.684953E1,6.411317E1,5.78005E2,2.7116446E2,9.1796486E1,2.9848334E2,2.3064642E1,1.070832E1,1.430062E2,7.7364087E0,3.2971786E1,1.4853277E0,1.4402016E2,4.7192044E2,1.4825128E0,4.4017883E1,1.3179604E2,9.530944E1,3.6199115E2,1.3150306E1,1.0944658E1,1.247794E0,3.4570343E1,4.234312E0,6.2294907E1,3.8842854E1,5.7321973E0,2.2464237E0,4.730778E0,1.248436E0,3.491075E0,1.241792E0,6.4611397E0,9.225736E1,1.52173E1,9.990171E0,6.4878035E0,2.8915808E1,8.983392E0,9.235999E0,6.5534065E1,1.9169983E1,1.6954702E1,5.4846535E0,2.240999E0,6.4608536E1,1.2732755E1,5.1380413E1,3.7497998E2,2.0302504E2,1.925057E2,7.865874E1,4.033944E1,5.1457047E1,2.642943E2,3.418903E1,1.6119368E1,6.9452753E0,6.221057E0,4.487263E0,7.2106636E1,7.089955E1,2.995293E0,4.741116E0,2.7294235E0,3.0242363E1,6.2850975E1,8.116919E1,1.966472E2,2.7527325E2,3.2386239E0,4.077926E1],"tree_param":{"num_deleted":"0","num_feature":"47","num_nodes":"119","size_leaf_vector":"1"}},{"base_weights":[4.6463794E-4,-3.066355E-1,2.2470756E-1,4.604546E-2,-4.444666E-1,5.2456047E-2,4.657772E-1,-7.6789096E-2,4.2586905E-1,-6.182099E-1,-1.6657518E-1,-2.0202062E-1,1.8525821E-1,5.331172E-1,1.3285974E-1,4.7649536E-2,-5.1159686E-1,6.583095E-2,6.335051E-1,-4.18885E-1,-8.326324E-1,4.4459972E-1,-2.9397658E-1,2.6674038E-1,-3.4665072E-1,3.1190687E-1,-3.2011494E-1,7.91835E-1,4.5255163E-1,-8.5294314E-2,6.682699E-1,-9.963711E-2,3.2320407E-1,-7.3812014E-1,5.767035E-2,-1.1055351E0,2.233492E-1,8.835188E-1,1.5522423E-1,-6.550903E-1,3.9154936E-2,2.2545657E-3,-9.0115845E-1,1.7230852E-1,9.167485E-1,6.4477935E-3,-4.843648E-1,-5.1143473E-1,4.7091454E-1,-8.66096E-1,-1.9459303E-1,4.2809513E-1,5.988254E-2,-6.3254036E-2,-6.0435003E-1,8.534294E-1,-8.107051E-2,6.7097515E-1,3.0162996E-1,-2.5547835E-1,4.463903E-1,2.874038E-1,1.1311702E0,3.2364834E-2,-1.6174821E-2,4.3733485E-2,-5.733474E-3,4.9600475E-2,-6.343453E-2,-7.253618E-2,4.0335163E-2,-1.4848773E-2,-1.0443899E-1,-3.701967E-2,3.4735654E-2,7.896076E-2,-1.1312736E-2,-5.4726806E-2,5.4704092E-2,-2.1822853E-2,-6.348788E-2,5.7881106E-2,-5.419418E-3,-3.7357256E-2,4.0012408E-2,-7.207856E-2,-8.070745E-3,-4.4724338E-2,2.9395962E-2,7.921235E-2,-4.2604975E-2,-1.3105339E-2,4.174968E-2,-4.9866255E-2,-1.4633997E-2,-5.1463258E-2,8.468867E-2,5.117255E-2,-5.6065958E-2,3.2215696E-2,-7.169491E-2,-2.9043535E-2,1.4866251E-2,2.1182977E-2,5.304413E-2,2.7167499E-2,-1.0102808E-2,-3.52721E-2,1.6778143E-2,-5.613753E-2,3.960484E-2,-2.0104147E-2,6.5746956E-2,-7.278851E-2,3.6992487E-2,3.39492E-2,8.798155E-2,2.5897985E-2,-6.886307E-2,3.89126E-3,-4.9908146E-2,-2.2292163E-2,6.279849E-2,2.0334704E-3,9.6051365E-2,2.6258584E-2,1.09493196E-1],"categories":[],"categories_nodes":[],"categories_segments":[],"categories_sizes":[],"default_left":[0,0,0,0,0,0,0,0,0,0,0,0,0,0,0,0,0,0,0,0,0,0,0,0,0,0,0,0,0,0,0,0,0,0,0,0,0,0,0,0,0,0,0,0,0,0,0,0,0,0,0,0,0,0,0,0,0,0,0,0,0,0,0,0,0,0,0,0,0,0,0,0,0,0,0,0,0,0,0,0,0,0,0,0,0,0,0,0,0,0,0,0,0,0,0,0,0,0,0,0,0,0,0,0,0,0,0,0,0,0,0,0,0,0,0,0,0,0,0,0,0,0,0,0,0,0,0],"id":4,"left_children":[1,3,5,7,9,11,13,15,17,19,21,23,25,27,29,31,33,35,37,39,41,43,45,47,49,51,53,55,57,59,61,63,65,67,69,71,73,75,77,79,81,83,85,87,89,91,93,95,97,99,101,103,105,107,109,111,113,115,117,119,121,123,125,-1,-1,-1,-1,-1,-1,-1,-1,-1,-1,-1,-1,-1,-1,-1,-1,-1,-1,-1,-1,-1,-1,-1,-1,-1,-1,-1,-1,-1,-1,-1,-1,-1,-1,-1,-1,-1,-1,-1,-1,-1,-1,-1,-1,-1,-1,-1,-1,-1,-1,-1,-1,-1,-1,-1,-1,-1,-1,-1,-1,-1,-1,-1,-1],"loss_changes":[2.2785837E2,6.790007E1,7.938579E1,1.838168E1,4.8377426E1,3.7770096E1,1.7793518E1,1.6149664E1,7.154413E0,2.6041458E1,3.031491E1,2.6081984E1,4.7090347E1,1.3449707E1,1.58714485E1,9.47349E0,8.604933E0,6.9492493E0,7.149332E0,3.486438E1,1.6962585E1,8.4899E0,1.8385414E1,1.4691724E1,2.300512E1,1.717944E1,1.0738726E1,8.455162E0,1.6526733E1,8.898778E0,6.6053104E0,9.483086E0,8.485873E0,7.7276154E0,1.0276602E1,8.895192E-1,5.8762765E0,7.128784E0,1.1776924E1,1.4565002E1,9.075056E0,6.508048E0,1.2916962E1,7.6439247E0,5.645197E0,1.2623751E1,1.0142399E1,6.3317027E0,1.9201475E1,8.109768E0,1.7349434E1,1.6145805E1,1.1025057E1,9.292715E0,1.1814564E1,4.0273666E0,6.196485E0,2.2111298E1,1.6403059E1,9.38188E0,7.1979065E0,5.8875375E0,3.9573994E0,0E0,0E0,0E0,0E0,0E0,0E0,0E0,0E0,0E0,0E0,0E0,0E0,0E0,0E0,0E0,0E0,0E0,0E0,0E0,0E0,0E0,0E0,0E0,0E0,0E0,0E0,0E0,0E0,0E0,0E0,0E0,0E0,0E0,0E0,0E0,0E0,0E0,0E0,0E0,0E0,0E0,0E0,0E0,0E0,0E0,0E0,0E0,0E0,0E0,0E0,0E0,0E0,0E0,0E0,0E0,0E0,0E0,0E0,0E0,0E0,0E0,0E0,0E0,0E0],"parents":[2147483647,0,0,1,1,2,2,3,3,4,4,5,5,6,6,7,7,8,8,9,9,10,10,11,11,12,12,13,13,14,14,15,15,16,16,17,17,18,18,19,19,20,20,21,21,22,22,23,23,24,24,25,25,26,26,27,27,28,28,29,29,30,30,31,31,32,32,33,33,34,34,35,35,36,36,37,37,38,38,39,39,40,40,41,41,42,42,43,43,44,44,45,45,46,46,47,47,48,48,49,49,50,50,51,51,52,52,53,53,54,54,55,55,56,56,57,57,58,58,59,59,60,60,61,61,62,62],"right_children":[2,4,6,8,10,12,14,16,18,20,22,24,26,28,30,32,34,36,38,40,42,44,46,48,50,52,54,56,58,60,62,64,66,68,70,72,74,76,78,80,82,84,86,88,90,92,94,96,98,100,102,104,106,108,110,112,114,116,118,120,122,124,126,-1,-1,-1,-1,-1,-1,-1,-1,-1,-1,-1,-1,-1,-1,-1,-1,-1,-1,-1,-1,-1,-1,-1,-1,-1,-1,-1,-1,-1,-1,-1,-1,-1,-1,-1,-1,-1,-1,-1,-1,-1,-1,-1,-1,-1,-1,-1,-1,-1,-1,-1,-1,-1,-1,-1,-1,-1,-1,-1,-1,-1,-1,-1,-1],"split_conditions":[2.8006543E3,8.433E5,1.6E3,2.8E3,3.1E3,2E0,2.196085E-1,2.0383E5,3.2242856E2,4.47E2,4.3961352E-1,4.8E2,3.8190258E-1,6.336207E-1,7.6285845E3,3.2762152E-1,4.7E1,5.616798E-1,5E0,2.3456765E3,5.616798E-1,3.840463E3,4E0,3.904398E3,1.2E3,4.0205017E-2,6.9135803E-1,5.808686E-1,4E0,1.1666667E4,1.3489011E-1,7.634E3,-2.1111111E-1,6.05E-1,6.9648564E-1,2.1111111E-1,6.25E-2,6.5294117E-1,-2.6666668E-1,4E0,2.022652E-2,3.7930512E-1,2.5E3,8.709795E-2,9.1090304E-1,1.3264267E-1,2.2E3,5.4199207E-1,6.191879E-1,6.636E5,5.5804214E3,6.7E3,3.7444934E-2,6.666667E-2,5.1666665E-1,6.09E2,7.3333335E-1,2E0,7.394304E-1,2.734E5,1.2155E4,2.3E3,1.0205E3,3.2364834E-2,-1.6174821E-2,4.3733485E-2,-5.733474E-3,4.9600475E-2,-6.343453E-2,-7.253618E-2,4.0335163E-2,-1.4848773E-2,-1.0443899E-1,-3.701967E-2,3.4735654E-2,7.896076E-2,-1.1312736E-2,-5.4726806E-2,5.4704092E-2,-2.1822853E-2,-6.348788E-2,5.7881106E-2,-5.419418E-3,-3.7357256E-2,4.0012408E-2,-7.207856E-2,-8.070745E-3,-4.4724338E-2,2.9395962E-2,7.921235E-2,-4.2604975E-2,-1.3105339E-2,4.174968E-2,-4.9866255E-2,-1.4633997E-2,-5.1463258E-2,8.468867E-2,5.117255E-2,-5.6065958E-2,3.2215696E-2,-7.169491E-2,-2.9043535E-2,1.4866251E-2,2.1182977E-2,5.304413E-2,2.7167499E-2,-1.0102808E-2,-3.52721E-2,1.6778143E-2,-5.613753E-2,3.960484E-2,-2.0104147E-2,6.5746956E-2,-7.278851E-2,3.6992487E-2,3.39492E-2,8.798155E-2,2.5897985E-2,-6.886307E-2,3.89126E-3,-4.9908146E-2,-2.2292163E-2,6.279849E-2,2.0334704E-3,9.6051365E-2,2.6258584E-2,1.09493196E-1],"split_indices":[20,16,21,23,22,45,25,17,14,18,3,22,26,5,19,28,12,5,46,20,5,19,46,19,23,25,5,26,46,23,30,0,38,5,5,43,36,3,38,46,25,29,23,30,28,24,21,29,27,16,19,15,31,41,29,0,37,46,26,17,0,13,18,0,0,0,0,0,0,0,0,0,0,0,0,0,0,0,0,0,0,0,0,0,0,0,0,0,0,0,0,0,0,0,0,0,0,0,0,0,0,0,0,0,0,0,0,0,0,0,0,0,0,0,0,0,0,0,0,0,0,0,0,0,0,0,0],"split_type":[0,0,0,0,0,0,0,0,0,0,0,0,0,0,0,0,0,0,0,0,0,0,0,0,0,0,0,0,0,0,0,0,0,0,0,0,0,0,0,0,0,0,0,0,0,0,0,0,0,0,0,0,0,0,0,0,0,0,0,0,0,0,0,0,0,0,0,0,0,0,0,0,0,0,0,0,0,0,0,0,0,0,0,0,0,0,0,0,0,0,0,0,0,0,0,0,0,0,0,0,0,0,0,0,0,0,0,0,0,0,0,0,0,0,0,0,0,0,0,0,0,0,0,0,0,0,0],"sum_hessian":[3.3067666E3,1.3954009E3,1.9113657E3,3.922868E2,1.00311414E3,1.1155145E3,7.9585114E2,2.9702655E2,9.5260254E1,6.1646387E2,3.8665027E2,3.8234344E2,7.331711E2,6.614556E2,1.343955E2,2.3162708E2,6.5399475E1,3.5324715E1,5.9935535E1,3.2100995E2,2.954539E2,6.626612E1,3.2038416E2,8.995283E1,2.9239062E2,5.865596E2,1.4661151E2,1.5497148E2,5.0648416E2,9.608581E1,3.830968E1,1.5136134E2,8.026574E1,4.6571205E1,1.8828272E1,3.473794E0,3.1850922E1,3.880405E1,2.1131485E1,2.1150787E2,1.09502075E2,2.2484234E1,2.7296967E2,4.289389E1,2.3372232E1,1.246531E2,1.9573105E2,1.838326E1,7.1569565E1,6.5146706E1,2.2724393E2,4.0099448E2,1.855651E2,7.76565E1,6.8955E1,1.4477791E2,1.0193581E1,2.0555132E2,3.0093286E2,7.3181145E1,2.2904663E1,2.190638E1,1.6403301E1,2.664809E1,1.2471325E2,4.8357685E1,3.1908052E1,2.959803E0,4.36114E1,5.683264E0,1.3145008E1,1.2405602E0,2.2332337E0,7.717706E0,2.4133215E1,3.3330982E1,5.47307E0,8.208881E0,1.2922604E1,7.3745514E1,1.3776236E2,1.3672532E1,9.5829544E1,1.1610914E1,1.0873321E1,2.5361806E2,1.9351604E1,9.151769E0,3.3742123E1,2.1629982E1,1.7422494E0,9.428686E1,3.0366243E1,1.19716774E2,7.601428E1,1.7139492E1,1.2437693E0,6.1363823E1,1.0205744E1,3.9790132E0,6.1167694E1,1.5247601E2,7.4767914E1,2.6482843E2,1.3616606E2,7.2324684E1,1.1324042E2,3.1845936E1,4.581057E1,6.146931E1,7.485694E0,2.7199743E0,1.4205792E2,3.7287881E0,6.4647923E0,1.4458643E2,6.0964893E1,2.9122223E2,9.710631E0,4.2323444E1,3.0857697E1,7.9747167E0,1.4929946E1,1.8171743E1,3.7346375E0,5.470616E0,1.0932686E1],"tree_param":{"num_deleted":"0","num_feature":"47","num_nodes":"127","size_leaf_vector":"1"}},{"base_weights":[4.6255827E-4,-3.5613388E-1,1.6850883E-1,-5.1939464E-1,7.5308114E-2,-6.8587036E-4,4.2074695E-1,-6.3024837E-1,7.9493836E-2,-7.835283E-1,1.3265763E-1,-1.5023679E-1,1.811802E-1,-9.371913E-2,4.7581953E-1,-7.92548E-1,-4.4569987E-1,1.7038745E-1,-7.8567976E-1,-1.09875254E-1,-3.1557623E-1,-5.4442503E-2,4.2087767E-1,3.139552E-1,-2.3297621E-1,1.00869074E-1,7.539567E-1,-3.0485797E-1,5.185847E-1,7.845511E-1,3.953396E-1,-5.2454513E-1,-9.61993E-1,-1.6126482E-1,-6.1980575E-1,8.2505226E-2,1.1532495E0,-9.3690246E-1,1.9759543E-2,8.2921624E-2,-7.0157295E-1,-2.2915025E-1,3.5261723E-1,5.295986E-1,-3.1868073E-1,5.7037556E-1,7.573242E-2,-3.028334E-1,3.061384E-1,-2.3203973E-1,2.148495E-1,1.8050238E-1,9.650803E-1,-8.2719475E-1,-4.417428E-2,1.4394348E0,4.7571536E-2,4.1048458E-1,1.0931959E0,2.6524958E-1,6.393231E-1,2.2295825E-2,-4.8562407E-2,-7.472408E-2,1.3740088E-2,2.1122081E-2,-3.1167477E-2,-1.3007524E-2,-5.7761516E-2,-1.1391988E-3,6.292837E-2,1.1974881E-1,-8.868623E-3,-1.4508748E-2,-9.617023E-2,1.5120868E-2,-9.404443E-2,-3.0003846E-2,3.27762E-2,5.132746E-2,-2.7066547E-2,1.5903415E-2,6.445953E-2,-5.0633095E-2,4.6701424E-2,-7.200554E-2,4.9128596E-2,2.4394147E-2,-4.2472504E-2,-4.880027E-3,-3.314991E-2,5.108079E-2,-1.7737068E-2,-2.6440619E-2,4.0108643E-2,1.9507913E-2,-3.0004315E-2,-5.400413E-2,4.1748323E-2,8.898767E-2,2.3699446E-2,-9.378833E-2,-5.8247647E-3,-2.2933645E-2,5.1326387E-2,1.6619056E-2,1.2296273E-1,-4.1149955E-2,4.9177602E-2,3.7816397E-4,6.5653235E-2,1.016704E-1,4.2966567E-2,1.2390538E-2,4.675377E-2,5.019954E-2,-2.6562415E-2],"categories":[],"categories_nodes":[],"categories_segments":[],"categories_sizes":[],"default_left":[0,0,0,0,0,0,0,0,0,0,0,0,0,0,0,0,0,0,0,0,0,0,0,0,0,0,0,0,0,0,0,0,0,0,0,0,0,0,0,0,0,0,0,0,0,0,0,0,0,0,0,0,0,0,0,0,0,0,0,0,0,0,0,0,0,0,0,0,0,0,0,0,0,0,0,0,0,0,0,0,0,0,0,0,0,0,0,0,0,0,0,0,0,0,0,0,0,0,0,0,0,0,0,0,0,0,0,0,0,0,0,0,0,0,0,0,0],"id":5,"left_children":[1,3,5,7,9,11,13,15,17,19,21,23,25,27,29,31,33,35,37,-1,39,41,43,45,47,49,51,53,55,57,59,61,63,65,67,69,71,73,-1,-1,75,77,79,81,83,85,87,89,91,93,95,97,99,101,103,105,107,109,111,113,115,-1,-1,-1,-1,-1,-1,-1,-1,-1,-1,-1,-1,-1,-1,-1,-1,-1,-1,-1,-1,-1,-1,-1,-1,-1,-1,-1,-1,-1,-1,-1,-1,-1,-1,-1,-1,-1,-1,-1,-1,-1,-1,-1,-1,-1,-1,-1,-1,-1,-1,-1,-1,-1,-1,-1,-1],"loss_changes":[1.9769406E2,7.44707E1,9.569724E1,5.095311E1,1.44350815E1,3.6556973E1,2.5551178E1,1.9028656E1,9.621155E0,5.392007E0,1.4777439E1,2.8401089E1,2.7824059E1,1.1520113E1,1.9899048E1,1.5072388E1,1.5008064E1,9.40588E0,2.0948172E0,0E0,7.4456615E0,1.19425E1,8.837633E0,6.7986794E0,2.3689892E1,2.0277988E1,8.837044E0,8.947745E0,9.866209E0,1.8851395E1,2.03721E1,1.3840401E1,8.396835E0,1.3315763E1,1.2543015E1,7.554874E0,5.2352057E0,2.4222775E0,0E0,0E0,5.328134E0,1.3530394E1,1.2196414E1,9.70307E0,5.2662487E0,7.5992794E0,9.670727E0,1.8341972E1,1.4885635E1,1.2796686E1,1.1169756E1,7.601905E0,7.4107323E0,6.8546906E0,8.799255E0,1.5169783E0,6.229393E0,1.4542169E1,1.1646889E1,1.50821705E1,6.92498E0,0E0,0E0,0E0,0E0,0E0,0E0,0E0,0E0,0E0,0E0,0E0,0E0,0E0,0E0,0E0,0E0,0E0,0E0,0E0,0E0,0E0,0E0,0E0,0E0,0E0,0E0,0E0,0E0,0E0,0E0,0E0,0E0,0E0,0E0,0E0,0E0,0E0,0E0,0E0,0E0,0E0,0E0,0E0,0E0,0E0,0E0,0E0,0E0,0E0,0E0,0E0,0E0,0E0,0E0,0E0,0E0],"parents":[2147483647,0,0,1,1,2,2,3,3,4,4,5,5,6,6,7,7,8,8,9,9,10,10,11,11,12,12,13,13,14,14,15,15,16,16,17,17,18,18,20,20,21,21,22,22,23,23,24,24,25,25,26,26,27,27,28,28,29,29,30,30,31,31,32,32,33,33,34,34,35,35,36,36,37,37,40,40,41,41,42,42,43,43,44,44,45,45,46,46,47,47,48,48,49,49,50,50,51,51,52,52,53,53,54,54,55,55,56,56,57,57,58,58,59,59,60,60],"right_children":[2,4,6,8,10,12,14,16,18,20,22,24,26,28,30,32,34,36,38,-1,40,42,44,46,48,50,52,54,56,58,60,62,64,66,68,70,72,74,-1,-1,76,78,80,82,84,86,88,90,92,94,96,98,100,102,104,106,108,110,112,114,116,-1,-1,-1,-1,-1,-1,-1,-1,-1,-1,-1,-1,-1,-1,-1,-1,-1,-1,-1,-1,-1,-1,-1,-1,-1,-1,-1,-1,-1,-1,-1,-1,-1,-1,-1,-1,-1,-1,-1,-1,-1,-1,-1,-1,-1,-1,-1,-1,-1,-1,-1,-1,-1,-1,-1,-1],"split_conditions":[3.7918381E3,4.2613706E-1,3E3,6.5E1,1E0,3.1405745E3,9.07E2,1.2E3,8.3998954E-1,3.3363637E-1,1.5E3,6.636E5,5.994673E-1,9E0,5E-2,2.258375E5,4E0,4.6818182E-1,1.25E-1,-1.09875254E-1,3.525488E-1,1.2764E3,5.5393588E-2,8.07E2,2.1E3,2E0,1.1904762E-2,4.4005162E-1,4.3632922E-1,3E0,6.8329365E3,1.7391305E-1,6.5E-2,2.247E5,6.5501165E-1,4E3,5.225554E-2,4E0,1.9759543E-2,8.2921624E-2,2E0,4.7E1,7.3333335E-1,3.858521E-2,5.0052885E-2,1.5774647E3,1E0,5.048309E-1,7.257384E-1,4.569E2,7.4509805E-1,3.808081E-1,4.0579904E-2,1.02154195E-1,3.2071E4,1E0,9.12E2,4.0366623E-1,5E0,5.320873E-1,5.5887175E-1,2.2295825E-2,-4.8562407E-2,-7.472408E-2,1.3740088E-2,2.1122081E-2,-3.1167477E-2,-1.3007524E-2,-5.7761516E-2,-1.1391988E-3,6.292837E-2,1.1974881E-1,-8.868623E-3,-1.4508748E-2,-9.617023E-2,1.5120868E-2,-9.404443E-2,-3.0003846E-2,3.27762E-2,5.132746E-2,-2.7066547E-2,1.5903415E-2,6.445953E-2,-5.0633095E-2,4.6701424E-2,-7.200554E-2,4.9128596E-2,2.4394147E-2,-4.2472504E-2,-4.880027E-3,-3.314991E-2,5.108079E-2,-1.7737068E-2,-2.6440619E-2,4.0108643E-2,1.9507913E-2,-3.0004315E-2,-5.400413E-2,4.1748323E-2,8.898767E-2,2.3699446E-2,-9.378833E-2,-5.8247647E-3,-2.2933645E-2,5.1326387E-2,1.6619056E-2,1.2296273E-1,-4.1149955E-2,4.9177602E-2,3.7816397E-4,6.5653235E-2,1.016704E-1,4.2966567E-2,1.2390538E-2,4.675377E-2,5.019954E-2,-2.6562415E-2],"split_indices":[19,28,23,12,45,20,21,21,24,35,21,16,24,7,36,17,46,42,36,0,35,18,31,21,21,45,32,29,29,45,19,34,31,17,5,23,25,46,0,0,46,12,5,31,26,20,9,3,5,14,3,29,28,30,0,46,2,24,45,28,26,0,0,0,0,0,0,0,0,0,0,0,0,0,0,0,0,0,0,0,0,0,0,0,0,0,0,0,0,0,0,0,0,0,0,0,0,0,0,0,0,0,0,0,0,0,0,0,0,0,0,0,0,0,0,0,0],"split_type":[0,0,0,0,0,0,0,0,0,0,0,0,0,0,0,0,0,0,0,0,0,0,0,0,0,0,0,0,0,0,0,0,0,0,0,0,0,0,0,0,0,0,0,0,0,0,0,0,0,0,0,0,0,0,0,0,0,0,0,0,0,0,0,0,0,0,0,0,0,0,0,0,0,0,0,0,0,0,0,0,0,0,0,0,0,0,0,0,0,0,0,0,0,0,0,0,0,0,0,0,0,0,0,0,0,0,0,0,0,0,0,0,0,0,0,0,0],"sum_hessian":[3.2970393E3,1.0557034E3,2.241336E3,7.657385E2,2.8996484E2,1.3420928E3,8.992433E2,6.460946E2,1.196439E2,1.7358011E1,2.726068E2,7.365729E2,6.0551984E2,8.688613E1,8.123571E2,3.4201657E2,3.0407806E2,1.0899603E2,1.0647871E1,6.19932E0,1.115869E1,1.6579251E2,1.0681431E2,1.11005516E2,6.255674E2,5.3208966E2,7.343017E1,6.498104E1,2.1905094E1,1.661677E2,6.4618945E2,1.3406624E2,2.0795033E2,1.1618842E2,1.8788965E2,1.0104507E2,7.950961E0,9.399946E0,1.2479243E0,1.9851729E0,9.173518E0,1.1630998E2,4.9482533E1,9.337181E1,1.3442495E1,5.278935E1,5.8216164E1,5.541944E2,7.137294E1,1.3544687E2,3.9664282E2,2.0258623E1,5.3171547E1,2.0910036E1,4.4071003E1,6.717016E0,1.5188078E1,7.617557E1,8.999213E1,4.2282806E2,2.2336139E2,1.7262926E1,1.1680331E2,2.020245E2,5.925834E0,4.234053E1,7.384789E1,4.7882736E1,1.4000691E2,9.0356895E1,1.0688171E1,5.70557E0,2.2453907E0,3.476472E0,5.923475E0,3.7221713E0,5.451347E0,9.28813E1,2.3428679E1,3.380534E1,1.5677191E1,4.8410534E1,4.496128E1,9.955799E0,3.4866962E0,2.2254643E0,5.0563885E1,4.22783E1,1.5937863E1,2.0515356E2,3.4904086E2,4.205759E1,2.9315351E1,1.1751957E2,1.7927301E1,3.699893E2,2.6653519E1,5.6992307E0,1.4559393E1,3.902953E1,1.4142017E1,1.293582E1,7.974216E0,3.2853764E1,1.121724E1,1.2451501E0,5.471866E0,7.7183976E0,7.4696803E0,4.122937E1,3.4946194E1,5.8754715E1,3.123741E1,3.3164615E2,9.118189E1,2.1713019E2,6.2312E0],"tree_param":{"num_deleted":"0","num_feature":"47","num_nodes":"117","size_leaf_vector":"1"}},{"base_weights":[5.16876E-4,-2.6997456E-1,1.9752745E-1,4.2032223E-2,-3.924939E-1,-3.617505E-2,3.3846262E-1,-2.2053781E-1,1.8172048E-1,-6.474018E-1,-2.3987085E-1,-5.840781E-1,4.5947358E-2,5.096799E-1,2.0129803E-1,-7.381617E-2,-5.182395E-1,-8.995167E-2,3.1425765E-1,-7.417113E-1,-1.04718246E-1,6.1845817E-3,-3.9101145E-1,-7.3251647E-1,2.516726E-1,5.385425E-1,-2.1368848E-2,4.713474E-1,1.3254243E0,-4.5230445E-2,3.244703E-1,-2.1523477E-1,4.716775E-1,6.2302893E-1,-6.281829E-1,-2.9018122E-1,4.4420314E-1,7.302791E-1,1.4303924E-1,-5.506955E-1,-9.181857E-1,1.9025123E-1,-1.038777E0,-4.737294E-1,2.199537E-1,2.0339909E-1,-4.824245E-1,-2.681178E-1,-1.0028632E0,7.073026E-1,-7.2962844E-1,2.3528665E-1,8.564512E-1,-1.2355169E-1,3.83177E-1,9.180737E-2,5.430415E-1,1.4306806E0,2.7955358E-4,-3.1220222E-1,1.5811145E-1,6.300244E-2,4.587971E-1,3.442912E-2,-2.9970484E-2,6.1464462E-2,-2.2973752E-2,-4.1606035E-2,9.362219E-2,-6.478822E-2,-9.818891E-3,1.5251965E-2,-4.8859045E-2,-1.8268635E-2,6.610985E-2,-3.1371016E-2,6.1871205E-2,1.5471012E-2,-9.549628E-2,-5.9660338E-2,-5.175763E-3,1.0581585E-2,-7.126079E-2,-2.969567E-3,8.2091235E-2,3.312094E-2,-1.05198406E-1,-4.9134646E-2,2.5378108E-2,3.780856E-3,5.1503386E-2,-3.3244837E-2,3.7460666E-2,-4.8101667E-2,-1.2127557E-2,-3.4899425E-2,6.8372056E-2,-9.10452E-2,-3.0222656E-2,-4.7056577E-3,9.5098875E-2,-8.561068E-2,2.463855E-2,-1.303367E-2,6.1011646E-2,3.709835E-2,1.0775079E-1,-1.855984E-2,1.1291068E-2,1.9382309E-3,4.5874443E-2,-7.523781E-2,1.5269668E-2,-8.611757E-3,4.3666422E-2,3.2704413E-2,1.10070646E-1,-3.2387413E-2,3.003593E-2,-1.9433628E-3,3.9197456E-2,1.5114414E-2,-4.3758508E-2,3.6511537E-2,-5.708551E-2],"categories":[],"categories_nodes":[],"categories_segments":[],"categories_sizes":[],"default_left":[0,0,0,0,0,0,0,0,0,0,0,0,0,0,0,0,0,0,0,0,0,0,0,0,0,0,0,0,0,0,0,0,0,0,0,0,0,0,0,0,0,0,0,0,0,0,0,0,0,0,0,0,0,0,0,0,0,0,0,0,0,0,0,0,0,0,0,0,0,0,0,0,0,0,0,0,0,0,0,0,0,0,0,0,0,0,0,0,0,0,0,0,0,0,0,0,0,0,0,0,0,0,0,0,0,0,0,0,0,0,0,0,0,0,0,0,0,0,0,0,0,0,0,0,0],"id":6,"left_children":[1,3,5,7,9,11,13,15,17,19,21,23,25,27,29,31,33,35,37,39,41,43,45,47,49,51,53,55,57,59,61,63,65,67,69,71,73,75,77,79,81,83,85,87,89,91,93,95,97,99,101,103,105,107,109,111,113,115,-1,117,119,121,123,-1,-1,-1,-1,-1,-1,-1,-1,-1,-1,-1,-1,-1,-1,-1,-1,-1,-1,-1,-1,-1,-1,-1,-1,-1,-1,-1,-1,-1,-1,-1,-1,-1,-1,-1,-1,-1,-1,-1,-1,-1,-1,-1,-1,-1,-1,-1,-1,-1,-1,-1,-1,-1,-1,-1,-1,-1,-1,-1,-1,-1,-1],"loss_changes":[1.7524847E2,5.299337E1,6.2682808E1,1.44053545E1,3.856256E1,3.2274776E1,2.7775162E1,5.922201E0,9.253183E0,1.8967407E1,2.3211159E1,1.1782862E1,2.0709938E1,1.5864685E1,2.0077623E1,7.2430296E0,6.023264E0,9.196807E0,1.2176872E1,1.0175552E1,1.5697787E1,2.4567703E1,2.1105793E1,9.730789E0,7.1535E0,7.0371876E0,2.2788069E1,1.3697472E1,3.2104568E0,1.20470495E1,1.544973E1,9.408317E0,5.4936438E0,3.9666653E0,4.742897E0,1.1235792E1,7.285553E0,5.7847176E0,1.1314608E1,1.8180218E1,5.6587677E0,9.1058035E0,7.9759216E0,1.1093721E1,1.3074594E1,1.0222531E1,1.699176E1,7.55997E0,5.838955E0,4.6758685E0,2.6408634E0,9.5565815E0,6.9051266E0,1.4979714E1,9.061171E0,1.017718E1,1.1013916E1,1.4633942E-1,0E0,8.348265E0,8.473534E0,1.3615097E1,1.0318188E1,0E0,0E0,0E0,0E0,0E0,0E0,0E0,0E0,0E0,0E0,0E0,0E0,0E0,0E0,0E0,0E0,0E0,0E0,0E0,0E0,0E0,0E0,0E0,0E0,0E0,0E0,0E0,0E0,0E0,0E0,0E0,0E0,0E0,0E0,0E0,0E0,0E0,0E0,0E0,0E0,0E0,0E0,0E0,0E0,0E0,0E0,0E0,0E0,0E0,0E0,0E0,0E0,0E0,0E0,0E0,0E0,0E0,0E0,0E0,0E0,0E0,0E0],"parents":[2147483647,0,0,1,1,2,2,3,3,4,4,5,5,6,6,7,7,8,8,9,9,10,10,11,11,12,12,13,13,14,14,15,15,16,16,17,17,18,18,19,19,20,20,21,21,22,22,23,23,24,24,25,25,26,26,27,27,28,28,29,29,30,30,31,31,32,32,33,33,34,34,35,35,36,36,37,37,38,38,39,39,40,40,41,41,42,42,43,43,44,44,45,45,46,46,47,47,48,48,49,49,50,50,51,51,52,52,53,53,54,54,55,55,56,56,57,57,59,59,60,60,61,61,62,62],"right_children":[2,4,6,8,10,12,14,16,18,20,22,24,26,28,30,32,34,36,38,40,42,44,46,48,50,52,54,56,58,60,62,64,66,68,70,72,74,76,78,80,82,84,86,88,90,92,94,96,98,100,102,104,106,108,110,112,114,116,-1,118,120,122,124,-1,-1,-1,-1,-1,-1,-1,-1,-1,-1,-1,-1,-1,-1,-1,-1,-1,-1,-1,-1,-1,-1,-1,-1,-1,-1,-1,-1,-1,-1,-1,-1,-1,-1,-1,-1,-1,-1,-1,-1,-1,-1,-1,-1,-1,-1,-1,-1,-1,-1,-1,-1,-1,-1,-1,-1,-1,-1,-1,-1,-1,-1],"split_conditions":[2.8006543E3,8.433E5,1.2E3,2E0,1.5E3,3.65E3,3.3347134E-2,6.636E5,3.3264749E3,3E0,4E0,5.100827E-1,1.6245E5,8.666594E-1,3.0922812E3,5.0148025E-2,-1.3181818E-1,1.7E3,5.7E2,4.47E2,4.1463414E-1,4.0454546E-1,4.3243244E-1,2.353E5,5.036214E-2,4.4247787E-2,4.2905396E3,2E3,4.4285715E-1,2E0,6E0,4E0,2.8917E4,3.2256633E-1,2.5755574E3,8.16E2,3.245E2,3.968254E-3,2.8327144E5,2.3456765E3,6.9E1,3.0016E4,1.7645775E3,4E-2,2E0,3E3,2.2E3,2.1425906E3,2.33195E3,5.275344E-1,1.375E-1,-7.692308E-2,1.5E3,1.5364349E-1,2.857168E-2,2.0009741E-2,1.858736E-2,-2E-1,2.7955358E-4,7.333331E-1,3.863559E-1,8.495575E-1,8.1698585E-1,3.442912E-2,-2.9970484E-2,6.1464462E-2,-2.2973752E-2,-4.1606035E-2,9.362219E-2,-6.478822E-2,-9.818891E-3,1.5251965E-2,-4.8859045E-2,-1.8268635E-2,6.610985E-2,-3.1371016E-2,6.1871205E-2,1.5471012E-2,-9.549628E-2,-5.9660338E-2,-5.175763E-3,1.0581585E-2,-7.126079E-2,-2.969567E-3,8.2091235E-2,3.312094E-2,-1.05198406E-1,-4.9134646E-2,2.5378108E-2,3.780856E-3,5.1503386E-2,-3.3244837E-2,3.7460666E-2,-4.8101667E-2,-1.2127557E-2,-3.4899425E-2,6.8372056E-2,-9.10452E-2,-3.0222656E-2,-4.7056577E-3,9.5098875E-2,-8.561068E-2,2.463855E-2,-1.303367E-2,6.1011646E-2,3.709835E-2,1.0775079E-1,-1.855984E-2,1.1291068E-2,1.9382309E-3,4.5874443E-2,-7.523781E-2,1.5269668E-2,-8.611757E-3,4.3666422E-2,3.2704413E-2,1.10070646E-1,-3.2387413E-2,3.003593E-2,-1.9433628E-3,3.9197456E-2,1.5114414E-2,-4.3758508E-2,3.6511537E-2,-5.708551E-2],"split_indices":[20,16,21,45,23,19,25,16,19,8,46,29,17,24,20,26,42,21,13,18,34,29,3,17,27,31,20,22,35,45,6,6,0,35,20,22,14,32,17,20,2,0,20,31,46,22,21,18,18,29,44,40,13,30,28,25,31,42,0,24,35,5,28,0,0,0,0,0,0,0,0,0,0,0,0,0,0,0,0,0,0,0,0,0,0,0,0,0,0,0,0,0,0,0,0,0,0,0,0,0,0,0,0,0,0,0,0,0,0,0,0,0,0,0,0,0,0,0,0,0,0,0,0,0,0],"split_type":[0,0,0,0,0,0,0,0,0,0,0,0,0,0,0,0,0,0,0,0,0,0,0,0,0,0,0,0,0,0,0,0,0,0,0,0,0,0,0,0,0,0,0,0,0,0,0,0,0,0,0,0,0,0,0,0,0,0,0,0,0,0,0,0,0,0,0,0,0,0,0,0,0,0,0,0,0,0,0,0,0,0,0,0,0,0,0,0,0,0,0,0,0,0,0,0,0,0,0,0,0,0,0,0,0,0,0,0,0,0,0,0,0,0,0,0,0,0,0,0,0,0,0,0,0],"sum_hessian":[3.2866003E3,1.384854E3,1.9017462E3,3.9065982E2,9.941942E2,7.1569867E2,1.1860476E3,1.3545958E2,2.5520024E2,3.7111826E2,6.23076E2,9.2493004E1,6.232057E2,5.263319E2,6.5971564E2,9.1575E1,4.3884583E1,8.378358E1,1.7141666E2,3.158602E2,5.5258076E1,2.3745712E2,3.8561884E2,7.864782E1,1.3845183E1,7.408426E1,5.491214E2,5.042162E2,2.211572E1,2.2000664E2,4.3970898E2,7.320271E1,1.8372286E1,3.4460454E0,4.0438538E1,6.127224E1,2.251134E1,4.902703E1,1.22389626E2,1.536596E2,1.6220059E2,4.2601215E1,1.2656859E1,7.280131E1,1.646558E2,5.1235645E1,3.3438318E2,2.9671017E1,4.8976803E1,9.64576E0,4.199424E0,3.8806503E1,3.5277752E1,4.3894452E2,1.1017689E2,8.047451E1,4.237417E2,2.0408024E1,1.7076964E0,9.4889244E1,1.251174E2,1.497292E2,2.899798E2,1.5398181E1,5.780453E1,1.265896E1,5.7133255E0,1.2341459E0,2.2118995E0,2.6936016E1,1.350252E1,2.6080427E1,3.5191814E1,8.921429E0,1.35899105E1,3.4730456E0,4.5553986E1,1.1797617E2,4.413456E0,1.0145319E2,5.220641E1,4.6502347E0,1.5755035E2,3.4730087E1,7.871127E0,2.4550178E0,1.0201842E1,5.966686E1,1.3134454E1,1.2159604E2,4.3059776E1,1.593491E1,3.5300735E1,2.2291867E2,1.11464516E2,2.5940361E1,3.7306564E0,3.5472298E1,1.3504505E1,4.438287E0,5.207473E0,2.9661808E0,1.2332429E0,2.3136929E1,1.5669576E1,2.286963E1,1.2408121E1,3.0235513E2,1.3658939E2,4.3405743E1,6.677114E1,6.716062E0,7.375845E1,2.3707964E1,4.0003372E2,1.1890969E0,1.9218927E1,8.1588036E1,1.3301206E1,8.376091E1,4.1356487E1,1.2387348E2,2.5855724E1,2.8405563E2,5.9241405E0],"tree_param":{"num_deleted":"0","num_feature":"47","num_nodes":"125","size_leaf_vector":"1"}},{"base_weights":[4.8604302E-4,-2.5099066E-1,1.833657E-1,6.403154E-2,-3.584855E-1,3.3675555E-2,3.8410863E-1,2.8283098E-1,-8.8402614E-2,-4.8622E-1,-9.4316036E-2,-4.263316E-2,3.53568E-1,3.9680332E-1,-1.107466E-1,9.46378E-2,8.2564723E-1,9.888906E-1,-1.3576218E-1,-2.6280618E-1,-6.195103E-1,-4.1571283E-1,1.659267E-2,-1.4902706E-1,2.002098E-1,-6.799978E-1,4.1656706E-1,4.7092345E-1,7.2979845E-2,-1.2485147E-1,5.577868E-1,9.48259E-1,-2.1865964E-1,-2.0049386E-2,1.2265488E0,-4.4640458E-1,6.3235094E-3,-4.9549314E-1,3.7291306E-1,4.1877386E-1,-6.6390216E-1,3.81448E-2,-6.3310575E-1,-1.966799E-1,2.5910628E-1,-3.9162293E-2,-4.986858E-1,2.641916E-1,-1.1111269E0,1.0347568E-1,-1.3096519E0,6.93664E-1,2.682888E-1,-1.03147045E-1,5.178966E-1,-1.1056347E-1,5.828836E-1,-1.7447574E-2,6.277717E-2,-1.4615588E-2,6.0173567E-2,8.046134E-2,-1.8032685E-2,5.757327E-2,-7.816608E-2,1.05928116E-1,1.0735966E-2,-2.3638276E-2,-1.0614494E-1,4.1508866E-3,-9.394273E-2,-4.3872952E-2,3.615356E-2,4.7745597E-2,-2.652967E-2,5.365584E-2,-6.346106E-2,-5.222791E-2,3.2735004E-3,-1.2495491E-2,1.027359E-1,3.7617928E-3,-6.1714873E-2,-1.874189E-2,9.248891E-2,4.504611E-2,-1.2007721E-3,-1.838058E-2,1.1155371E-2,-7.615005E-2,-2.9573603E-2,3.1134107E-3,3.0802218E-2,-1.0005892E-1,2.5233598E-2,4.5474794E-2,-8.368692E-2,-1.8137414E-2,-1.124837E-1,-5.4460075E-3,6.675457E-2,4.307218E-2,5.371714E-3,-7.621482E-2,3.972446E-3,4.6875786E-2,1.6717404E-2,2.7246276E-2,-2.0597935E-2,-6.8947226E-3,7.592225E-2],"categories":[],"categories_nodes":[],"categories_segments":[],"categories_sizes":[],"default_left":[0,0,0,0,0,0,0,0,0,0,0,0,0,0,0,0,0,0,0,0,0,0,0,0,0,0,0,0,0,0,0,0,0,0,0,0,0,0,0,0,0,0,0,0,0,0,0,0,0,0,0,0,0,0,0,0,0,0,0,0,0,0,0,0,0,0,0,0,0,0,0,0,0,0,0,0,0,0,0,0,0,0,0,0,0,0,0,0,0,0,0,0,0,0,0,0,0,0,0,0,0,0,0,0,0,0,0,0,0,0,0],"id":7,"left_children":[1,3,5,7,9,11,13,15,17,19,21,23,25,27,-1,29,31,33,35,37,39,41,43,45,47,49,51,53,55,57,59,61,63,-1,65,67,69,71,73,75,77,79,81,83,85,87,89,91,93,95,97,99,101,103,105,107,109,-1,-1,-1,-1,-1,-1,-1,-1,-1,-1,-1,-1,-1,-1,-1,-1,-1,-1,-1,-1,-1,-1,-1,-1,-1,-1,-1,-1,-1,-1,-1,-1,-1,-1,-1,-1,-1,-1,-1,-1,-1,-1,-1,-1,-1,-1,-1,-1,-1,-1,-1,-1,-1,-1],"loss_changes":[1.5075847E2,4.6760597E1,5.7017048E1,1.1764732E1,3.4682953E1,2.658074E1,1.9733437E1,1.4710779E1,1.0757621E1,2.048909E1,1.2008465E1,2.2755362E1,1.3938404E1,1.9308609E1,0E0,1.1112528E1,4.96299E0,2.9816704E0,8.844964E0,3.877523E1,2.0264435E1,8.550509E0,1.3047206E1,2.3497738E1,2.2811563E1,6.266524E0,7.960884E0,1.7732452E1,1.4223376E1,7.9204197E0,6.6183453E0,5.2070026E0,4.630005E0,0E0,1.3387051E0,7.549383E0,8.613115E0,1.7024418E1,1.3728627E1,7.5067196E0,9.592987E0,8.11639E0,7.6243668E0,1.0523878E1,1.109702E1,1.8101583E1,7.487461E0,8.357681E0,4.5412207E0,4.6401076E0,1.0511112E0,1.0371643E1,7.83035E0,7.240829E0,1.9015182E1,8.814025E0,1.1742726E1,0E0,0E0,0E0,0E0,0E0,0E0,0E0,0E0,0E0,0E0,0E0,0E0,0E0,0E0,0E0,0E0,0E0,0E0,0E0,0E0,0E0,0E0,0E0,0E0,0E0,0E0,0E0,0E0,0E0,0E0,0E0,0E0,0E0,0E0,0E0,0E0,0E0,0E0,0E0,0E0,0E0,0E0,0E0,0E0,0E0,0E0,0E0,0E0,0E0,0E0,0E0,0E0,0E0,0E0],"parents":[2147483647,0,0,1,1,2,2,3,3,4,4,5,5,6,6,7,7,8,8,9,9,10,10,11,11,12,12,13,13,15,15,16,16,17,17,18,18,19,19,20,20,21,21,22,22,23,23,24,24,25,25,26,26,27,27,28,28,29,29,30,30,31,31,32,32,34,34,35,35,36,36,37,37,38,38,39,39,40,40,41,41,42,42,43,43,44,44,45,45,46,46,47,47,48,48,49,49,50,50,51,51,52,52,53,53,54,54,55,55,56,56],"right_children":[2,4,6,8,10,12,14,16,18,20,22,24,26,28,-1,30,32,34,36,38,40,42,44,46,48,50,52,54,56,58,60,62,64,-1,66,68,70,72,74,76,78,80,82,84,86,88,90,92,94,96,98,100,102,104,106,108,110,-1,-1,-1,-1,-1,-1,-1,-1,-1,-1,-1,-1,-1,-1,-1,-1,-1,-1,-1,-1,-1,-1,-1,-1,-1,-1,-1,-1,-1,-1,-1,-1,-1,-1,-1,-1,-1,-1,-1,-1,-1,-1,-1,-1,-1,-1,-1,-1,-1,-1,-1,-1,-1,-1],"split_conditions":[2.8006543E3,1.4640683E5,2.9666667E3,4E0,2.52025E3,3.8885715E2,2.6E1,2E0,3.6862367E-1,4E0,7.354961E-2,3.7271099E3,-5.275974E-4,2.0903252E-1,-1.107466E-1,1.3E3,5.4E3,3.709E3,2.500201E-2,2E0,3.559322E-1,3.14E2,2.4677449E3,1.8916866E-1,7.4509805E-1,1.4E3,4.8E2,3.6331704E3,7.7818184E3,2.6250867E3,4.51074E0,3.5481E4,-4.3333334E-1,-2.0049386E-2,1E1,-1.5E-1,7.4225E2,7.399421E-1,4.922156E0,1.00021385E-1,4.7E1,3.8357144E5,2.504996E-2,4.385E4,8.24E2,1.1E3,3E0,2.906653E-2,6.174995E-1,1.3E1,5.141844E-1,3.91122E-1,6.7156863E-1,-7.5E-1,6.790845E-1,6.25E-2,4.613333E0,-1.7447574E-2,6.277717E-2,-1.4615588E-2,6.0173567E-2,8.046134E-2,-1.8032685E-2,5.757327E-2,-7.816608E-2,1.05928116E-1,1.0735966E-2,-2.3638276E-2,-1.0614494E-1,4.1508866E-3,-9.394273E-2,-4.3872952E-2,3.615356E-2,4.7745597E-2,-2.652967E-2,5.365584E-2,-6.346106E-2,-5.222791E-2,3.2735004E-3,-1.2495491E-2,1.027359E-1,3.7617928E-3,-6.1714873E-2,-1.874189E-2,9.248891E-2,4.504611E-2,-1.2007721E-3,-1.838058E-2,1.1155371E-2,-7.615005E-2,-2.9573603E-2,3.1134107E-3,3.0802218E-2,-1.0005892E-1,2.5233598E-2,4.5474794E-2,-8.368692E-2,-1.8137414E-2,-1.124837E-1,-5.4460075E-3,6.675457E-2,4.307218E-2,5.371714E-3,-7.621482E-2,3.972446E-3,4.6875786E-2,1.6717404E-2,2.7246276E-2,-2.0597935E-2,-6.8947226E-3,7.592225E-2],"split_indices":[20,17,23,46,23,14,9,46,3,46,30,20,30,25,0,21,23,0,27,46,3,2,20,25,3,15,22,19,19,20,10,0,39,0,7,39,14,28,10,27,12,17,25,23,18,21,6,28,29,1,3,29,5,39,27,36,10,0,0,0,0,0,0,0,0,0,0,0,0,0,0,0,0,0,0,0,0,0,0,0,0,0,0,0,0,0,0,0,0,0,0,0,0,0,0,0,0,0,0,0,0,0,0,0,0,0,0,0,0,0,0],"split_type":[0,0,0,0,0,0,0,0,0,0,0,0,0,0,0,0,0,0,0,0,0,0,0,0,0,0,0,0,0,0,0,0,0,0,0,0,0,0,0,0,0,0,0,0,0,0,0,0,0,0,0,0,0,0,0,0,0,0,0,0,0,0,0,0,0,0,0,0,0,0,0,0,0,0,0,0,0,0,0,0,0,0,0,0,0,0,0,0,0,0,0,0,0,0,0,0,0,0,0,0,0,0,0,0,0,0,0,0,0,0,0],"sum_hessian":[3.2760718E3,1.3791874E3,1.8968845E3,3.509894E2,1.028198E3,1.0872848E3,8.095997E2,1.4377032E2,2.0721907E2,6.9250757E2,3.3569043E2,8.785725E2,2.0871228E2,8.048951E2,4.704591E0,1.076297E2,3.614063E1,7.888901E0,1.9933017E2,2.59881E2,4.3262653E2,8.541688E1,2.5027354E2,6.111868E2,2.673857E2,1.14281225E1,1.9728415E2,6.5460736E2,1.5028772E2,7.3519005E1,3.4110695E1,3.2425533E1,3.7150989E0,1.2351749E0,6.6537266E0,6.1886257E1,1.3744392E2,1.904081E2,6.947291E1,1.7392738E1,4.152338E2,2.7930365E1,5.748651E1,1.332655E2,1.1700805E2,4.6590787E2,1.4527893E2,2.5570793E2,1.1677786E1,5.4644346E0,5.9636884E0,6.748763E1,1.2979652E2,4.942131E1,6.051861E2,1.1108506E2,3.9202652E1,6.679274E1,6.7262673E0,8.414306E0,2.5696386E1,2.943829E1,2.9872427E0,1.721405E0,1.9936938E0,5.420373E0,1.2333536E0,5.567117E1,6.215086E0,1.3321262E2,4.2312984E0,1.7480853E2,1.5599575E1,5.1065414E1,1.8407492E1,1.4440671E1,2.9520671E0,3.970296E2,1.820418E1,2.496651E1,2.9638531E0,1.2655114E1,4.4831398E1,1.2927965E2,3.9858644E0,5.1677032E1,6.533102E1,2.2215431E2,2.4375357E2,2.2949306E1,1.2232962E2,1.01982765E2,1.5372516E2,1.0186916E1,1.490869E0,4.224798E0,1.2396362E0,1.2447581E0,4.7189302E0,1.3896855E1,5.359078E1,5.00304E1,7.976612E1,6.4117646E0,4.300955E1,4.4315692E2,1.6202914E2,2.8259136E1,8.282593E1,1.555081E1,2.3651842E1],"tree_param":{"num_deleted":"0","num_feature":"47","num_nodes":"111","size_leaf_vector":"1"}},{"base_weights":[3.8896245E-4,-2.9527605E-1,1.3882792E-1,-4.4104123E-1,8.5639864E-2,1.383685E-4,3.463272E-1,-4.8046917E-2,-5.712351E-1,3.4682488E-1,-7.479947E-2,-6.3565016E-2,3.3262232E-1,-1.0856536E-1,3.953761E-1,-1.6966747E-1,4.261932E-1,-6.215983E-1,-2.3068681E-2,1.6590928E-1,9.231984E-1,-7.1650064E-1,1.4949738E-2,-1.3606207E-1,2.3184128E-1,7.072951E-2,5.5153555E-1,-4.414534E-1,2.4077901E-1,6.2785834E-1,3.009085E-1,-2.336013E-1,7.6363057E-1,5.9834653E-1,-2.683921E-1,6.907578E-2,-6.627646E-1,-7.918491E-1,2.2164544E-1,-5.1893634E-1,3.7789968E-1,1.0630859E0,-1.2556809E-1,-1.1768713E0,1.7801498E-1,-1.1574205E-1,5.819349E-1,-2.0880528E-1,2.0452228E-1,9.391133E-2,5.1193535E-1,5.0272554E-1,-2.2901717E-1,4.2332605E-1,1.1238673E0,-1.9173558E-1,-9.354203E-1,3.7564978E-1,-8.9449115E-2,3.6478162E-1,8.794438E-1,1.8283162E-1,5.186763E-1,-2.484693E-2,2.1023663E-2,-1.8623717E-2,1.01367235E-1,-5.580273E-2,5.7362977E-2,6.64074E-2,-7.9195544E-2,-5.1303547E-2,3.424702E-2,-3.6105078E-2,-5.818969E-2,-7.9583794E-2,1.36677865E-2,6.381847E-2,-6.713283E-3,-5.2776385E-2,8.381268E-2,3.784922E-2,-3.6378797E-2,9.031585E-2,-6.9386885E-3,5.06728E-2,-6.529675E-2,-3.327098E-3,-9.9245645E-2,6.602678E-2,-3.702325E-2,-1.8940326E-2,3.6249105E-2,6.0831546E-3,7.453846E-2,4.947965E-3,-2.2147581E-2,2.4907922E-2,-2.3782004E-2,2.7131716E-2,-5.748679E-3,7.208011E-2,1.3803174E-2,9.971998E-2,1.4670763E-2,1.058757E-2,-5.108803E-2,4.81535E-2,-1.0215635E-3,9.5514566E-2,-5.1066395E-2,-3.1515904E-2,5.978943E-2,2.9447764E-2,-9.485301E-2,4.592841E-2,-3.3264413E-2,6.2510925E-3,5.809166E-2,8.663841E-2,3.4572747E-2,1.9599156E-2,-1.8818015E-2,-1.1249547E-2,4.2840913E-2],"categories":[],"categories_nodes":[],"categories_segments":[],"categories_sizes":[],"default_left":[0,0,0,0,0,0,0,0,0,0,0,0,0,0,0,0,0,0,0,0,0,0,0,0,0,0,0,0,0,0,0,0,0,0,0,0,0,0,0,0,0,0,0,0,0,0,0,0,0,0,0,0,0,0,0,0,0,0,0,0,0,0,0,0,0,0,0,0,0,0,0,0,0,0,0,0,0,0,0,0,0,0,0,0,0,0,0,0,0,0,0,0,0,0,0,0,0,0,0,0,0,0,0,0,0,0,0,0,0,0,0,0,0,0,0,0,0,0,0,0,0,0,0,0,0],"id":8,"left_children":[1,3,5,7,9,11,13,15,17,19,21,23,25,27,29,31,33,35,37,39,41,43,45,47,49,51,53,55,57,59,61,63,65,67,69,71,73,75,77,79,81,83,85,87,89,91,93,95,97,99,101,103,105,107,109,111,113,115,-1,117,119,121,123,-1,-1,-1,-1,-1,-1,-1,-1,-1,-1,-1,-1,-1,-1,-1,-1,-1,-1,-1,-1,-1,-1,-1,-1,-1,-1,-1,-1,-1,-1,-1,-1,-1,-1,-1,-1,-1,-1,-1,-1,-1,-1,-1,-1,-1,-1,-1,-1,-1,-1,-1,-1,-1,-1,-1,-1,-1,-1,-1,-1,-1,-1],"loss_changes":[1.33744E2,5.7895813E1,6.4044495E1,3.854106E1,1.2146015E1,2.8294943E1,1.9935478E1,1.0954452E1,1.5614975E1,1.13418865E1,1.0376959E1,2.4041235E1,1.2275951E1,1.0288983E1,1.749057E1,9.181181E0,4.799457E0,1.4786667E1,9.332849E0,1.2554069E1,3.965042E0,9.312847E0,1.1841023E1,2.2360615E1,8.501055E0,1.2927752E1,8.098812E0,5.3948717E0,8.832965E0,1.5012825E1,1.467308E1,7.220528E0,6.2299933E0,7.5866127E0,8.564155E0,9.088628E0,9.664642E0,3.3334117E0,7.4585423E0,6.9968286E0,7.418146E0,3.886612E0,2.95684E0,2.3829155E0,4.387631E0,1.0772077E1,6.093727E0,1.7673077E1,1.0689569E1,6.8573394E0,1.0542892E1,1.0112364E1,9.988761E0,9.285894E0,6.480282E0,7.401104E0,7.0195503E0,8.106489E0,0E0,1.319304E1,1.3050339E1,1.2796433E1,7.1599693E0,0E0,0E0,0E0,0E0,0E0,0E0,0E0,0E0,0E0,0E0,0E0,0E0,0E0,0E0,0E0,0E0,0E0,0E0,0E0,0E0,0E0,0E0,0E0,0E0,0E0,0E0,0E0,0E0,0E0,0E0,0E0,0E0,0E0,0E0,0E0,0E0,0E0,0E0,0E0,0E0,0E0,0E0,0E0,0E0,0E0,0E0,0E0,0E0,0E0,0E0,0E0,0E0,0E0,0E0,0E0,0E0,0E0,0E0,0E0,0E0,0E0,0E0],"parents":[2147483647,0,0,1,1,2,2,3,3,4,4,5,5,6,6,7,7,8,8,9,9,10,10,11,11,12,12,13,13,14,14,15,15,16,16,17,17,18,18,19,19,20,20,21,21,22,22,23,23,24,24,25,25,26,26,27,27,28,28,29,29,30,30,31,31,32,32,33,33,34,34,35,35,36,36,37,37,38,38,39,39,40,40,41,41,42,42,43,43,44,44,45,45,46,46,47,47,48,48,49,49,50,50,51,51,52,52,53,53,54,54,55,55,56,56,57,57,59,59,60,60,61,61,62,62],"right_children":[2,4,6,8,10,12,14,16,18,20,22,24,26,28,30,32,34,36,38,40,42,44,46,48,50,52,54,56,58,60,62,64,66,68,70,72,74,76,78,80,82,84,86,88,90,92,94,96,98,100,102,104,106,108,110,112,114,116,-1,118,120,122,124,-1,-1,-1,-1,-1,-1,-1,-1,-1,-1,-1,-1,-1,-1,-1,-1,-1,-1,-1,-1,-1,-1,-1,-1,-1,-1,-1,-1,-1,-1,-1,-1,-1,-1,-1,-1,-1,-1,-1,-1,-1,-1,-1,-1,-1,-1,-1,-1,-1,-1,-1,-1,-1,-1,-1,-1,-1,-1,-1,-1,-1,-1],"split_conditions":[3.7918381E3,4.2613706E-1,3E3,8.433E5,4E0,2.4457485E3,9.07E2,2.8E3,1.28E4,2E0,3E0,4.146E2,7E0,1.2E1,6.25E-2,3.0481184E-1,5.1111114E-1,3.4246575E-3,3.9889807E-1,2.5013365E-2,4.1749E-2,5.004672E-2,3.7483334E2,1.8E3,1.4948146E-1,5.73E2,6.259473E-1,2.4468689E-1,5.053793E0,3E0,6.8329365E3,5.100827E-1,1.3100437E-2,1.6650715E3,3.2437615E3,1.5366667E2,4E0,2E-1,3.431584E-2,1.7E3,5.004672E-2,3.6045E3,8E0,2.21E2,8.87E2,3.2E3,2.542373E-1,5E-2,1.8916866E-1,0E0,2.8667938E-2,2.70775E5,5.000957E-2,4.605263E-2,1.098E5,2.0333333E-1,-7.5E-1,3.5866666E2,-8.9449115E-2,1.718E3,5E0,6.790845E-1,2.446E3,-2.484693E-2,2.1023663E-2,-1.8623717E-2,1.01367235E-1,-5.580273E-2,5.7362977E-2,6.64074E-2,-7.9195544E-2,-5.1303547E-2,3.424702E-2,-3.6105078E-2,-5.818969E-2,-7.9583794E-2,1.36677865E-2,6.381847E-2,-6.713283E-3,-5.2776385E-2,8.381268E-2,3.784922E-2,-3.6378797E-2,9.031585E-2,-6.9386885E-3,5.06728E-2,-6.529675E-2,-3.327098E-3,-9.9245645E-2,6.602678E-2,-3.702325E-2,-1.8940326E-2,3.6249105E-2,6.0831546E-3,7.453846E-2,4.947965E-3,-2.2147581E-2,2.4907922E-2,-2.3782004E-2,2.7131716E-2,-5.748679E-3,7.208011E-2,1.3803174E-2,9.971998E-2,1.4670763E-2,1.058757E-2,-5.108803E-2,4.81535E-2,-1.0215635E-3,9.5514566E-2,-5.1066395E-2,-3.1515904E-2,5.978943E-2,2.9447764E-2,-9.485301E-2,4.592841E-2,-3.3264413E-2,6.2510925E-3,5.809166E-2,8.663841E-2,3.4572747E-2,1.9599156E-2,-1.8818015E-2,-1.1249547E-2,4.2840913E-2],"split_indices":[19,28,23,16,46,18,21,23,22,46,45,14,6,6,36,28,41,32,29,26,27,25,14,21,24,21,24,27,10,45,19,29,32,20,19,14,46,42,28,18,25,19,6,13,18,21,34,36,25,12,26,17,25,31,15,30,39,14,0,18,45,27,0,0,0,0,0,0,0,0,0,0,0,0,0,0,0,0,0,0,0,0,0,0,0,0,0,0,0,0,0,0,0,0,0,0,0,0,0,0,0,0,0,0,0,0,0,0,0,0,0,0,0,0,0,0,0,0,0,0,0,0,0,0,0],"split_type":[0,0,0,0,0,0,0,0,0,0,0,0,0,0,0,0,0,0,0,0,0,0,0,0,0,0,0,0,0,0,0,0,0,0,0,0,0,0,0,0,0,0,0,0,0,0,0,0,0,0,0,0,0,0,0,0,0,0,0,0,0,0,0,0,0,0,0,0,0,0,0,0,0,0,0,0,0,0,0,0,0,0,0,0,0,0,0,0,0,0,0,0,0,0,0,0,0,0,0,0,0,0,0,0,0,0,0,0,0,0,0,0,0,0,0,0,0,0,0,0,0,0,0,0,0],"sum_hessian":[3.2655022E3,1.0410315E3,2.2244707E3,7.527996E2,2.882319E2,1.3339069E3,8.905638E2,1.876727E2,5.651269E2,1.0923788E2,1.7899402E2,1.1201053E3,2.1380156E2,8.656098E1,8.040028E2,1.4987816E2,3.7794548E1,5.1745166E2,4.7675217E1,8.412124E1,2.5116632E1,2.1105766E1,1.5788826E2,8.998165E2,2.2028883E2,9.794726E1,1.158543E2,4.4189465E1,4.237152E1,2.3067397E2,5.733288E2,1.409709E2,8.907244E0,3.0398756E1,7.3957925E0,2.9068735E1,4.8838293E2,1.0971608E1,3.670361E1,1.954198E1,6.457926E1,2.214872E1,2.9679124E0,1.3725936E1,7.37983E0,1.2895874E2,2.8929512E1,7.4177295E2,1.5804355E2,1.484977E2,7.1791145E1,3.9845135E1,5.8102123E1,9.607251E1,1.9781794E1,3.027336E1,1.3916104E1,3.9402138E1,2.9693818E0,1.139594E2,1.1671458E2,3.7294962E2,2.003792E2,1.18752464E2,2.2218447E1,3.4855592E0,5.4216843E0,2.97151E0,2.7427246E1,2.9498005E0,4.445992E0,9.616351E0,1.9452383E1,1.8959889E2,2.9878406E2,8.525536E0,2.4460726E0,1.1570095E1,2.5133514E1,1.8071728E1,1.4702513E0,5.6670303E1,7.908959E0,1.9700745E1,2.4479752E0,1.4749624E0,1.49295E0,1.7204419E0,1.2005494E1,3.4556217E0,3.9242082E0,1.0545633E2,2.3502415E1,1.3595817E1,1.5333696E1,1.7765123E2,5.6412177E2,1.27276085E2,3.076747E1,5.7336506E1,9.116118E1,2.94799E1,4.2311245E1,9.889483E0,2.995565E1,3.2325077E1,2.5777046E1,6.3711388E1,3.236112E1,1.85388E1,1.2429936E0,2.505896E1,5.2144003E0,2.7266731E0,1.1189431E1,3.0764206E1,8.637934E0,6.827284E1,4.5686558E1,6.9295135E1,4.7419437E1,3.1613797E2,5.681165E1,1.4461393E1,1.859178E2],"tree_param":{"num_deleted":"0","num_feature":"47","num_nodes":"125","size_leaf_vector":"1"}},{"base_weights":[4.8777615E-4,-2.213355E-1,1.6132745E-1,-7.0541516E-2,-4.1925228E-1,-3.4606494E-2,2.7997956E-1,-1.9463436E-1,2.7047083E-1,-5.211032E-1,6.818554E-2,-5.0544167E-1,3.5237063E-2,4.3054527E-1,1.6001098E-1,1.01372816E-1,-3.4844142E-1,8.5372336E-2,6.076877E-1,-5.6911707E-1,1.921255E-1,-2.1832903E-1,4.5672336E-1,-6.432702E-1,2.61008E-1,4.8359245E-1,-2.5838869E-2,3.9448997E-1,1.2182014E0,7.583663E-2,4.3604717E-1,-1.2584226E-1,5.0594664E-1,-4.306063E-1,7.140871E-2,-1.3447031E-1,3.9650592E-1,4.2986512E-1,1.1308769E0,-7.197539E-1,-3.895156E-1,9.873129E-1,-1.4436397E-1,-1.2822734E0,-4.489699E-2,-3.937223E-1,7.899356E-1,-2.1928877E-1,-8.941387E-1,5.824375E-1,-7.241113E-2,6.6110843E-1,-2.3756634E-2,-1.1490492E-1,3.2765627E-1,-1.7214656E-1,4.298394E-1,1.3222477E0,-2.403983E-3,-3.3959407E-2,3.1416923E-1,2.0352046E-1,6.8775433E-1,1.0348164E-2,-2.9007556E-2,-7.62434E-2,4.3588094E-2,-4.9749423E-2,-2.1566268E-2,4.220755E-2,-2.3340493E-2,1.7812863E-2,-2.942461E-2,1.1079749E-2,7.582321E-2,-2.1353602E-2,4.2370085E-2,-6.9549144E-3,9.989685E-2,-1.7175796E-2,-6.3822344E-2,-1.51940165E-2,-5.8984984E-2,9.455894E-2,-4.1888994E-3,-3.7634313E-2,4.0365182E-2,-7.0401547E-3,-1.1832067E-1,-2.5658613E-2,5.6668628E-2,2.9592583E-2,-8.235815E-2,-1.7884003E-2,7.566376E-2,-3.0404676E-2,6.60608E-2,-8.303103E-2,-2.4340115E-2,-3.4515806E-2,7.480442E-2,8.416164E-2,3.0953895E-2,6.627576E-2,-2.6613677E-2,-1.453976E-2,1.881204E-2,1.4936643E-2,7.1562305E-2,-2.8922176E-2,8.6222395E-2,2.0094456E-2,4.340471E-2,2.9265435E-2,1.0184007E-1,-1.9035139E-4,-5.972731E-2,-4.0890668E-3,3.957586E-2,4.1033715E-2,-1.3445275E-2,6.33332E-2,9.293833E-3],"categories":[],"categories_nodes":[],"categories_segments":[],"categories_sizes":[],"default_left":[0,0,0,0,0,0,0,0,0,0,0,0,0,0,0,0,0,0,0,0,0,0,0,0,0,0,0,0,0,0,0,0,0,0,0,0,0,0,0,0,0,0,0,0,0,0,0,0,0,0,0,0,0,0,0,0,0,0,0,0,0,0,0,0,0,0,0,0,0,0,0,0,0,0,0,0,0,0,0,0,0,0,0,0,0,0,0,0,0,0,0,0,0,0,0,0,0,0,0,0,0,0,0,0,0,0,0,0,0,0,0,0,0,0,0,0,0,0,0,0,0,0,0],"id":9,"left_children":[1,3,5,7,9,11,13,15,17,19,21,23,25,27,29,31,33,35,37,39,41,43,45,47,49,51,53,55,57,59,61,63,65,67,69,71,73,75,77,79,81,83,85,87,89,91,93,95,97,99,-1,101,103,105,107,109,111,113,-1,115,117,119,121,-1,-1,-1,-1,-1,-1,-1,-1,-1,-1,-1,-1,-1,-1,-1,-1,-1,-1,-1,-1,-1,-1,-1,-1,-1,-1,-1,-1,-1,-1,-1,-1,-1,-1,-1,-1,-1,-1,-1,-1,-1,-1,-1,-1,-1,-1,-1,-1,-1,-1,-1,-1,-1,-1,-1,-1,-1,-1,-1,-1],"loss_changes":[1.161727E2,4.0816223E1,4.3890957E1,3.297467E1,2.9407639E1,2.3458363E1,2.1168373E1,2.6031515E1,1.2930439E1,1.6871918E1,1.1581447E1,9.901861E0,1.7035973E1,1.43092575E1,1.5207796E1,1.8082596E1,1.3000786E1,9.317819E0,6.3560047E0,1.2134186E1,8.603521E0,1.1021239E1,1.2807877E1,8.141571E0,6.379508E0,6.7327805E0,1.7293684E1,1.0078445E1,2.9454346E0,1.31959095E1,8.819006E0,8.749008E0,8.687883E0,1.0282314E1,1.190527E1,7.7773376E0,8.461892E0,5.6142397E0,4.5627365E0,1.5798401E1,1.553363E1,2.7890415E0,5.9036584E0,2.7927809E0,1.27875395E1,7.6971087E0,7.4486713E0,6.594348E0,5.5747337E0,5.7873073E0,0E0,5.868107E0,6.4116673E0,1.2712062E1,8.710965E0,8.920871E0,1.1185577E1,1.5491104E-1,0E0,8.28326E0,1.2546014E1,1.0749901E1,6.352009E0,0E0,0E0,0E0,0E0,0E0,0E0,0E0,0E0,0E0,0E0,0E0,0E0,0E0,0E0,0E0,0E0,0E0,0E0,0E0,0E0,0E0,0E0,0E0,0E0,0E0,0E0,0E0,0E0,0E0,0E0,0E0,0E0,0E0,0E0,0E0,0E0,0E0,0E0,0E0,0E0,0E0,0E0,0E0,0E0,0E0,0E0,0E0,0E0,0E0,0E0,0E0,0E0,0E0,0E0,0E0,0E0,0E0,0E0,0E0,0E0],"parents":[2147483647,0,0,1,1,2,2,3,3,4,4,5,5,6,6,7,7,8,8,9,9,10,10,11,11,12,12,13,13,14,14,15,15,16,16,17,17,18,18,19,19,20,20,21,21,22,22,23,23,24,24,25,25,26,26,27,27,28,28,29,29,30,30,31,31,32,32,33,33,34,34,35,35,36,36,37,37,38,38,39,39,40,40,41,41,42,42,43,43,44,44,45,45,46,46,47,47,48,48,49,49,51,51,52,52,53,53,54,54,55,55,56,56,57,57,59,59,60,60,61,61,62,62],"right_children":[2,4,6,8,10,12,14,16,18,20,22,24,26,28,30,32,34,36,38,40,42,44,46,48,50,52,54,56,58,60,62,64,66,68,70,72,74,76,78,80,82,84,86,88,90,92,94,96,98,100,-1,102,104,106,108,110,112,114,-1,116,118,120,122,-1,-1,-1,-1,-1,-1,-1,-1,-1,-1,-1,-1,-1,-1,-1,-1,-1,-1,-1,-1,-1,-1,-1,-1,-1,-1,-1,-1,-1,-1,-1,-1,-1,-1,-1,-1,-1,-1,-1,-1,-1,-1,-1,-1,-1,-1,-1,-1,-1,-1,-1,-1,-1,-1,-1,-1,-1,-1,-1,-1],"split_conditions":[2.8006543E3,5.66E2,1.2E3,2.450393E3,5.404246E-1,3.65E3,3.3347134E-2,1.4443E5,4.587156E-2,5.8E3,4.13E2,5.100827E-1,1.6245E5,8.666594E-1,7.5E3,1.2394953E-1,2.8E3,8E0,4.352007E-1,1.2175927E3,6.25E-2,2.2266824E-2,1.5E3,2.353E5,6.687982E-2,2.0547945E-2,4.2905396E3,1.858736E-2,4.4285715E-1,1.5169856E-1,1E1,4.1152265E-2,7.253E1,3.4888235E3,5.1E3,4E0,1.3264267E-1,6.5E-1,1.2058571E5,4.47E2,8.7E3,5.601521E-1,1.23217404E-1,2E0,3.33E2,6.1538464E-1,2.0865265E-2,2.1425906E3,2.73E4,6.728395E-1,-7.241113E-2,4.8305085E-1,2.92E2,1.7E1,3.399E4,2.6818183E-1,3E0,-2E-1,-2.403983E-3,8.8617885E-1,3.0922812E3,1.5432099E-2,3.8885715E2,1.0348164E-2,-2.9007556E-2,-7.62434E-2,4.3588094E-2,-4.9749423E-2,-2.1566268E-2,4.220755E-2,-2.3340493E-2,1.7812863E-2,-2.942461E-2,1.1079749E-2,7.582321E-2,-2.1353602E-2,4.2370085E-2,-6.9549144E-3,9.989685E-2,-1.7175796E-2,-6.3822344E-2,-1.51940165E-2,-5.8984984E-2,9.455894E-2,-4.1888994E-3,-3.7634313E-2,4.0365182E-2,-7.0401547E-3,-1.1832067E-1,-2.5658613E-2,5.6668628E-2,2.9592583E-2,-8.235815E-2,-1.7884003E-2,7.566376E-2,-3.0404676E-2,6.60608E-2,-8.303103E-2,-2.4340115E-2,-3.4515806E-2,7.480442E-2,8.416164E-2,3.0953895E-2,6.627576E-2,-2.6613677E-2,-1.453976E-2,1.881204E-2,1.4936643E-2,7.1562305E-2,-2.8922176E-2,8.6222395E-2,2.0094456E-2,4.340471E-2,2.9265435E-2,1.0184007E-1,-1.9035139E-4,-5.972731E-2,-4.0890668E-3,3.957586E-2,4.1033715E-2,-1.3445275E-2,6.33332E-2,9.293833E-3],"split_indices":[20,18,21,20,28,19,25,17,31,21,2,29,17,24,19,26,21,6,24,18,36,26,15,17,27,32,20,31,35,24,6,31,14,19,21,46,24,37,17,15,15,24,30,46,14,5,24,18,15,33,0,3,2,6,0,42,45,42,0,5,20,32,14,0,0,0,0,0,0,0,0,0,0,0,0,0,0,0,0,0,0,0,0,0,0,0,0,0,0,0,0,0,0,0,0,0,0,0,0,0,0,0,0,0,0,0,0,0,0,0,0,0,0,0,0,0,0,0,0,0,0,0,0],"split_type":[0,0,0,0,0,0,0,0,0,0,0,0,0,0,0,0,0,0,0,0,0,0,0,0,0,0,0,0,0,0,0,0,0,0,0,0,0,0,0,0,0,0,0,0,0,0,0,0,0,0,0,0,0,0,0,0,0,0,0,0,0,0,0,0,0,0,0,0,0,0,0,0,0,0,0,0,0,0,0,0,0,0,0,0,0,0,0,0,0,0,0,0,0,0,0,0,0,0,0,0,0,0,0,0,0,0,0,0,0,0,0,0,0,0,0,0,0,0,0,0,0,0,0],"sum_hessian":[3.2541443E3,1.3676135E3,1.8865308E3,7.7698236E2,5.9063116E2,7.1180804E2,1.1747228E3,5.699936E2,2.0698882E2,4.884911E2,1.0214005E2,9.1143974E1,6.2066406E2,5.197834E2,6.549394E2,1.9501712E2,3.7497647E2,1.3444505E2,7.254377E1,4.5786975E2,3.0621326E1,5.9040577E1,4.3099476E1,7.738818E1,1.375579E1,7.358228E1,5.470818E2,4.984667E2,2.1316685E1,5.0286935E2,1.5207002E2,1.253228E2,6.969432E1,3.1358258E2,6.1393883E1,7.911283E1,5.5332214E1,5.550145E1,1.7042322E1,2.4737871E2,2.1049106E2,8.529758E0,2.2091568E1,7.3790693E0,5.1661507E1,1.2081838E1,3.1017637E1,2.9464941E1,4.7923244E1,1.1315439E1,2.44035E0,5.4285355E1,1.9296926E1,4.3751993E2,1.0956185E2,2.9043394E1,4.694233E2,1.9625837E1,1.6908472E0,3.448568E2,1.5801253E2,7.998685E1,7.208317E1,6.255028E1,6.2772514E1,2.692286E0,6.700204E1,1.17995E2,1.9558757E2,2.6671373E1,3.4722507E1,3.242163E1,4.6691196E1,4.026916E1,1.5063056E1,8.646976E0,4.6854473E1,2.4814086E0,1.4560913E1,5.2767464E1,1.9461125E2,1.4412926E2,6.6361786E1,6.5927954E0,1.9369631E0,1.4672919E1,7.4186482E0,1.7311019E0,5.6479673E0,3.8090946E1,1.3570561E1,5.9089165E0,6.172921E0,5.428248E0,2.558939E1,2.5741646E1,3.7232945E0,3.419582E1,1.3727423E1,3.1902647E0,8.1251745E0,1.7774902E1,3.6510452E1,4.712442E0,1.4584485E1,3.602211E2,7.729883E1,9.200821E1,1.7553637E1,2.5614594E1,3.4288018E0,2.2621785E2,2.4320546E2,1.1624883E0,1.846335E1,3.3217026E2,1.2686579E1,5.8220753E1,9.979177E1,4.1925205E1,3.806164E1,5.6018223E1,1.6064945E1],"tree_param":{"num_deleted":"0","num_feature":"47","num_nodes":"123","size_leaf_vector":"1"}},{"base_weights":[5.5814686E-4,-2.0583358E-1,1.4994341E-1,5.1181454E-2,-3.0809557E-1,3.3081297E-2,3.2955986E-1,-1.7644669E-1,1.7198953E-1,-5.6046987E-1,-1.9102956E-1,-6.780875E-2,2.5000772E-1,6.201395E-1,2.679169E-1,-4.517326E-2,-4.464314E-1,-7.726251E-2,2.9334348E-1,-6.4545983E-1,7.607111E-2,-2.8332627E-1,1.1390804E-1,-2.8182414E-1,4.7187887E-2,1.0745495E-1,5.459663E-1,-1.5567544E-1,6.916122E-1,2.2691728E-1,8.037193E-1,-1.7834775E-1,4.6644264E-1,-1.1223564E0,-2.4105738E-1,-2.531566E-1,3.934519E-1,6.853429E-1,1.3202871E-1,-4.5801893E-1,-8.3230704E-1,4.375951E-1,-5.451004E-1,-5.261634E-1,-1.5238093E-1,7.036681E-1,-2.5511285E-2,1.1210309E-1,-3.7476668E-1,-1.4011423E-1,2.894152E-1,2.0089321E-1,-5.5688363E-1,4.6347275E-2,7.828166E-1,-8.032161E-1,8.280931E-1,3.7994686E-1,9.0926033E-1,9.986708E-2,4.0540132E-1,4.9551806E-1,1.2166753E0,3.367147E-2,-2.6308963E-2,5.9508335E-2,-2.0244155E-2,-2.999016E-3,-1.00657925E-1,6.301772E-2,-2.672925E-2,1.2904494E-2,-4.5570213E-2,4.449658E-2,-6.893368E-2,5.9788194E-2,-2.050248E-2,1.4197401E-2,-8.794387E-2,-3.8898073E-2,4.087031E-2,3.0234116E-3,-6.6706225E-2,4.783252E-2,-6.695227E-2,-5.824999E-2,5.4599077E-2,-4.782284E-2,-3.8593614E-3,1.0146381E-2,-2.453163E-2,7.160883E-2,-3.0736981E-2,5.1988596E-3,-9.438042E-2,8.1146955E-2,-2.0113606E-2,-3.135168E-2,3.4008574E-2,7.6180105E-3,-2.6263038E-2,1.5686762E-2,6.32406E-2,7.759068E-3,4.9107105E-2,-9.0686895E-2,-5.2261823E-3,-4.453564E-2,3.5615973E-2,6.512917E-2,-4.623624E-2,-1.1222706E-1,1.0029594E-2,-9.193871E-3,9.332302E-2,-2.7974365E-2,5.2916683E-2,-2.1959394E-2,7.3567964E-2,-4.532683E-3,2.4097163E-2,3.5364274E-2,-3.369917E-2,-2.4673186E-2,5.7401147E-2,1.0152442E-1,1.5292149E-2],"categories":[],"categories_nodes":[],"categories_segments":[],"categories_sizes":[],"default_left":[0,0,0,0,0,0,0,0,0,0,0,0,0,0,0,0,0,0,0,0,0,0,0,0,0,0,0,0,0,0,0,0,0,0,0,0,0,0,0,0,0,0,0,0,0,0,0,0,0,0,0,0,0,0,0,0,0,0,0,0,0,0,0,0,0,0,0,0,0,0,0,0,0,0,0,0,0,0,0,0,0,0,0,0,0,0,0,0,0,0,0,0,0,0,0,0,0,0,0,0,0,0,0,0,0,0,0,0,0,0,0,0,0,0,0,0,0,0,0,0,0,0,0,0,0,0,0],"id":10,"left_children":[1,3,5,7,9,11,13,15,17,19,21,23,25,27,29,31,33,35,37,39,41,43,45,47,49,51,53,55,57,59,61,63,65,67,69,71,73,75,77,79,81,83,85,87,89,91,93,95,97,99,101,103,105,107,109,111,113,115,117,119,121,123,125,-1,-1,-1,-1,-1,-1,-1,-1,-1,-1,-1,-1,-1,-1,-1,-1,-1,-1,-1,-1,-1,-1,-1,-1,-1,-1,-1,-1,-1,-1,-1,-1,-1,-1,-1,-1,-1,-1,-1,-1,-1,-1,-1,-1,-1,-1,-1,-1,-1,-1,-1,-1,-1,-1,-1,-1,-1,-1,-1,-1,-1,-1,-1,-1],"loss_changes":[1.0003529E2,3.5821808E1,3.9497272E1,1.0717193E1,2.8690239E1,2.4997606E1,1.3120972E1,4.772799E0,7.717304E0,1.6730354E1,1.8815159E1,1.9206505E1,1.5237312E1,7.2640724E0,1.3299858E1,6.3586664E0,5.8554735E0,7.061911E0,1.0741558E1,9.149498E0,8.5957775E0,1.6219452E1,1.28263855E1,1.0027052E1,2.3094702E1,1.5378363E1,1.3881638E1,8.120433E0,7.683174E0,1.2919083E1,4.899296E0,8.141009E0,4.8614225E0,2.3272943E0,4.6791787E0,9.422413E0,6.6479654E0,5.54673E0,9.381714E0,8.677584E0,6.7663574E0,6.981117E0,4.732819E0,9.448223E0,1.685165E1,8.729237E0,1.4930216E1,1.9775644E1,8.102921E0,1.4618021E1,9.686653E0,9.500088E0,9.637115E0,1.0950058E1,1.0081898E1,5.1132936E0,2.1855278E0,1.2615847E1,6.227276E0,1.1916834E1,1.3624294E1,6.134546E0,2.1918812E0,0E0,0E0,0E0,0E0,0E0,0E0,0E0,0E0,0E0,0E0,0E0,0E0,0E0,0E0,0E0,0E0,0E0,0E0,0E0,0E0,0E0,0E0,0E0,0E0,0E0,0E0,0E0,0E0,0E0,0E0,0E0,0E0,0E0,0E0,0E0,0E0,0E0,0E0,0E0,0E0,0E0,0E0,0E0,0E0,0E0,0E0,0E0,0E0,0E0,0E0,0E0,0E0,0E0,0E0,0E0,0E0,0E0,0E0,0E0,0E0,0E0,0E0,0E0,0E0],"parents":[2147483647,0,0,1,1,2,2,3,3,4,4,5,5,6,6,7,7,8,8,9,9,10,10,11,11,12,12,13,13,14,14,15,15,16,16,17,17,18,18,19,19,20,20,21,21,22,22,23,23,24,24,25,25,26,26,27,27,28,28,29,29,30,30,31,31,32,32,33,33,34,34,35,35,36,36,37,37,38,38,39,39,40,40,41,41,42,42,43,43,44,44,45,45,46,46,47,47,48,48,49,49,50,50,51,51,52,52,53,53,54,54,55,55,56,56,57,57,58,58,59,59,60,60,61,61,62,62],"right_children":[2,4,6,8,10,12,14,16,18,20,22,24,26,28,30,32,34,36,38,40,42,44,46,48,50,52,54,56,58,60,62,64,66,68,70,72,74,76,78,80,82,84,86,88,90,92,94,96,98,100,102,104,106,108,110,112,114,116,118,120,122,124,126,-1,-1,-1,-1,-1,-1,-1,-1,-1,-1,-1,-1,-1,-1,-1,-1,-1,-1,-1,-1,-1,-1,-1,-1,-1,-1,-1,-1,-1,-1,-1,-1,-1,-1,-1,-1,-1,-1,-1,-1,-1,-1,-1,-1,-1,-1,-1,-1,-1,-1,-1,-1,-1,-1,-1,-1,-1,-1,-1,-1,-1,-1,-1,-1],"split_conditions":[2.8006543E3,8.433E5,1.7E3,2E0,1.29925E3,8.87E2,6.167979E-1,6.636E5,3.3264749E3,4E0,5.320873E-1,2E0,6.06E2,3.7450024E-1,7.529964E-1,5.0148025E-2,2.8571762E-2,1.7E3,5.7E2,6.15E2,3.3367936E-2,7.9469696E-2,-2.989899E-1,4.5527637E-1,1.85679E3,3.9681223E-1,6.904762E-1,5.1E3,4.64E2,3E0,1.618123E-2,4E0,2.8917E4,3.3707865E-2,-1.3181818E-1,1.1E3,3.2867507E3,4.982587E0,2.8327144E5,4.7E1,-1.875E-1,2.70775E5,5.5026457E-2,1.3E1,4E0,4.103896E-1,8.181818E-1,1E0,3.23E4,6.63E2,3.566913E-1,4.7E3,1.3E3,4.568306E-1,8.8461536E-1,6.728395E-1,7E0,4.665992E0,1.534E3,4.0471362E3,7.001589E-1,4.5801525E0,4.875E0,3.367147E-2,-2.6308963E-2,5.9508335E-2,-2.0244155E-2,-2.999016E-3,-1.00657925E-1,6.301772E-2,-2.672925E-2,1.2904494E-2,-4.5570213E-2,4.449658E-2,-6.893368E-2,5.9788194E-2,-2.050248E-2,1.4197401E-2,-8.794387E-2,-3.8898073E-2,4.087031E-2,3.0234116E-3,-6.6706225E-2,4.783252E-2,-6.695227E-2,-5.824999E-2,5.4599077E-2,-4.782284E-2,-3.8593614E-3,1.0146381E-2,-2.453163E-2,7.160883E-2,-3.0736981E-2,5.1988596E-3,-9.438042E-2,8.1146955E-2,-2.0113606E-2,-3.135168E-2,3.4008574E-2,7.6180105E-3,-2.6263038E-2,1.5686762E-2,6.32406E-2,7.759068E-3,4.9107105E-2,-9.0686895E-2,-5.2261823E-3,-4.453564E-2,3.5615973E-2,6.512917E-2,-4.623624E-2,-1.1222706E-1,1.0029594E-2,-9.193871E-3,9.332302E-2,-2.7974365E-2,5.2916683E-2,-2.1959394E-2,7.3567964E-2,-4.532683E-3,2.4097163E-2,3.5364274E-2,-3.369917E-2,-2.4673186E-2,5.7401147E-2,1.0152442E-1,1.5292149E-2],"split_indices":[20,16,21,45,23,13,5,16,19,8,28,45,2,29,24,26,26,21,13,23,25,30,38,3,18,26,33,15,2,45,32,6,0,31,42,22,19,10,17,12,40,17,31,1,46,35,5,45,22,18,24,23,22,3,33,33,11,10,0,20,26,10,10,0,0,0,0,0,0,0,0,0,0,0,0,0,0,0,0,0,0,0,0,0,0,0,0,0,0,0,0,0,0,0,0,0,0,0,0,0,0,0,0,0,0,0,0,0,0,0,0,0,0,0,0,0,0,0,0,0,0,0,0,0,0,0,0],"split_type":[0,0,0,0,0,0,0,0,0,0,0,0,0,0,0,0,0,0,0,0,0,0,0,0,0,0,0,0,0,0,0,0,0,0,0,0,0,0,0,0,0,0,0,0,0,0,0,0,0,0,0,0,0,0,0,0,0,0,0,0,0,0,0,0,0,0,0,0,0,0,0,0,0,0,0,0,0,0,0,0,0,0,0,0,0,0,0,0,0,0,0,0,0,0,0,0,0,0,0,0,0,0,0,0,0,0,0,0,0,0,0,0,0,0,0,0,0,0,0,0,0,0,0,0,0,0,0],"sum_hessian":[3.2425393E3,1.3613335E3,1.8812057E3,3.876222E2,9.7371124E2,1.1404136E3,7.407921E2,1.3423477E2,2.5338744E2,3.0734354E2,6.6636774E2,7.788613E2,3.6155225E2,1.2806148E2,6.1273065E2,9.1104675E1,4.3130093E1,8.309001E1,1.7029742E2,2.7112885E2,3.62147E1,5.1159274E2,1.5477496E2,2.717214E2,5.0713995E2,2.4493759E2,1.1661467E2,1.0703206E1,1.1735827E2,5.704996E2,4.2231102E1,7.280485E1,1.8299824E1,9.010355E0,3.4119736E1,6.082386E1,2.2266151E1,4.8701916E1,1.2159551E2,1.3707231E2,1.3405653E2,2.3078478E1,1.3136222E1,1.7816637E2,3.334264E2,2.8819204E1,1.2595576E2,5.1831768E1,2.1988963E2,2.8623245E2,2.209075E2,2.1534695E2,2.9590635E1,3.7888084E1,7.8726585E1,6.5652976E0,4.137909E0,4.9385498E1,6.797277E1,3.3417993E2,2.3631963E2,2.5442524E1,1.6788576E1,1.53523035E1,5.745255E1,1.2618665E1,5.68116E0,1.7200844E0,7.2902703E0,2.6827216E0,3.1437016E1,2.7885357E1,3.2938503E1,1.9799685E1,2.4664683E0,4.3765213E1,4.9367027E0,1.17301125E2,4.294387E0,1.2971481E2,7.3575015E0,8.252592E0,1.2580394E2,2.05125E1,2.565977E0,1.1444483E1,1.6917393E0,1.4400632E2,3.4160053E1,1.2607017E2,2.0735622E2,2.3632189E1,5.187017E0,1.17836044E2,8.119712E0,1.4079379E1,3.775239E1,2.0944603E2,1.0443609E1,1.333364E2,1.5289604E2,1.9414825E2,2.6759245E1,1.7829707E2,3.704988E1,1.201836E1,1.7572275E1,1.5038057E1,2.2850027E1,7.454717E1,4.1794157E0,3.4304266E0,3.134871E0,1.4747937E0,2.6631153E0,1.4865342E1,3.4520157E1,3.6498566E0,6.4322914E1,1.9426735E2,1.3991258E2,2.1976657E2,1.6553043E1,6.219385E0,1.9223139E1,1.4491896E1,2.296681E0],"tree_param":{"num_deleted":"0","num_feature":"47","num_nodes":"127","size_leaf_vector":"1"}},{"base_weights":[5.14514E-4,-2.4576962E-1,1.1497235E-1,-3.7430656E-1,7.1682625E-2,1.7556528E-2,3.30046E-1,-4.6066308E-1,7.696849E-2,3.2766148E-1,-8.365037E-2,2.615906E-1,-5.7446767E-2,2.864987E-1,8.905089E-1,-4.965009E-1,1.8247673E-1,1.5753907E-1,-6.8739665E-1,1.5053575E-1,8.861945E-1,-7.8573424E-1,-3.9471276E-3,-2.1383882E-1,3.7828985E-1,-1.0469447E-1,3.6679065E-1,1.19704634E-1,3.9479607E-1,-4.0421438E-1,9.820093E-1,-5.4224306E-1,2.501341E-2,-4.1445994E-1,5.6161577E-1,7.9956E-2,1.0428269E0,-1.0338603E0,-1.506743E-1,-4.797379E-1,3.4077787E-1,1.226314E0,4.69568E-1,5.8835816E-1,-1.0540291E0,-6.388153E-1,8.583646E-2,-4.014745E-1,5.935484E-1,4.4278455E-1,-3.5074005E-1,-2.8268918E-1,-1.2538489E-2,5.083765E-1,-7.397498E-2,6.7046744E-1,-4.7319187E-3,4.731647E-1,5.5222552E-2,4.77236E-2,-9.5322646E-2,-4.7986113E-2,1.040986E0,-2.6108755E-2,-4.927534E-2,2.1858215E-2,-3.4468643E-2,-5.545186E-2,6.36442E-2,-4.7733773E-2,6.723128E-2,-8.2681775E-3,2.8464649E-2,1.1291808E-1,-2.4388865E-2,-9.941096E-3,-9.0748765E-2,-5.576985E-2,8.2299456E-2,-4.9057774E-2,8.0004126E-2,-2.8609334E-2,3.539622E-2,1.03479296E-1,1.3661812E-2,5.902037E-2,-9.5715806E-2,-1.9964883E-2,8.423084E-2,-9.174969E-2,1.6977217E-2,-7.050454E-2,-1.1213303E-3,2.293541E-3,1.0122461E-1,-4.8788413E-2,2.921907E-2,-4.2709723E-2,6.727523E-2,1.8225323E-2,5.266926E-2,2.113162E-2,-5.6608383E-2,-3.6016196E-2,9.223969E-4,9.024177E-3,-2.7247718E-2,4.6832208E-2,-1.952228E-2,1.3919027E-2,-4.6745054E-2,5.5816248E-2,-7.102408E-2,6.259848E-2,-4.6521164E-3,-1.09639475E-2,3.857078E-2,-7.0456113E-3,6.4131685E-2,8.4882386E-2,5.958513E-3],"categories":[],"categories_nodes":[],"categories_segments":[],"categories_sizes":[],"default_left":[0,0,0,0,0,0,0,0,0,0,0,0,0,0,0,0,0,0,0,0,0,0,0,0,0,0,0,0,0,0,0,0,0,0,0,0,0,0,0,0,0,0,0,0,0,0,0,0,0,0,0,0,0,0,0,0,0,0,0,0,0,0,0,0,0,0,0,0,0,0,0,0,0,0,0,0,0,0,0,0,0,0,0,0,0,0,0,0,0,0,0,0,0,0,0,0,0,0,0,0,0,0,0,0,0,0,0,0,0,0,0,0,0,0,0,0,0,0,0,0,0],"id":11,"left_children":[1,3,5,7,9,11,13,15,17,19,21,23,25,27,29,31,33,35,37,39,41,43,45,47,49,51,53,55,57,59,61,63,65,67,69,71,73,75,77,79,81,83,85,87,89,91,93,95,97,99,101,103,105,107,109,111,113,115,117,-1,-1,-1,119,-1,-1,-1,-1,-1,-1,-1,-1,-1,-1,-1,-1,-1,-1,-1,-1,-1,-1,-1,-1,-1,-1,-1,-1,-1,-1,-1,-1,-1,-1,-1,-1,-1,-1,-1,-1,-1,-1,-1,-1,-1,-1,-1,-1,-1,-1,-1,-1,-1,-1,-1,-1,-1,-1,-1,-1,-1,-1],"loss_changes":[9.111527E1,4.1873863E1,4.6228592E1,2.8489525E1,1.1813269E1,2.7833475E1,1.65335E1,1.4219666E1,7.383696E0,1.0961022E1,1.0364128E1,1.9915049E1,2.3357237E1,1.1508816E1,6.215973E0,1.3871536E1,7.721097E0,7.312706E0,1.9736829E0,1.0516907E1,3.2212791E0,7.581559E0,9.595842E0,1.1008631E1,1.3668095E1,1.7179947E1,7.326874E0,1.7362492E1,1.0284943E1,4.371722E0,5.0820427E0,1.1670532E1,6.3054123E0,6.137533E0,8.857384E0,5.744808E0,5.9296913E0,9.1725445E-1,5.0063324E0,6.2081685E0,6.5190325E0,2.0124283E0,8.575022E0,2.0017412E0,3.779173E0,3.905755E0,1.0261084E1,1.1735602E1,5.384634E0,1.3539139E1,6.3245E0,2.082548E1,3.2258274E1,8.060234E0,4.289022E0,6.273937E0,1.003611E1,8.087746E0,8.883737E0,0E0,0E0,0E0,3.8318481E0,0E0,0E0,0E0,0E0,0E0,0E0,0E0,0E0,0E0,0E0,0E0,0E0,0E0,0E0,0E0,0E0,0E0,0E0,0E0,0E0,0E0,0E0,0E0,0E0,0E0,0E0,0E0,0E0,0E0,0E0,0E0,0E0,0E0,0E0,0E0,0E0,0E0,0E0,0E0,0E0,0E0,0E0,0E0,0E0,0E0,0E0,0E0,0E0,0E0,0E0,0E0,0E0,0E0,0E0,0E0,0E0,0E0,0E0],"parents":[2147483647,0,0,1,1,2,2,3,3,4,4,5,5,6,6,7,7,8,8,9,9,10,10,11,11,12,12,13,13,14,14,15,15,16,16,17,17,18,18,19,19,20,20,21,21,22,22,23,23,24,24,25,25,26,26,27,27,28,28,29,29,30,30,31,31,32,32,33,33,34,34,35,35,36,36,37,37,38,38,39,39,40,40,41,41,42,42,43,43,44,44,45,45,46,46,47,47,48,48,49,49,50,50,51,51,52,52,53,53,54,54,55,55,56,56,57,57,58,58,62,62],"right_children":[2,4,6,8,10,12,14,16,18,20,22,24,26,28,30,32,34,36,38,40,42,44,46,48,50,52,54,56,58,60,62,64,66,68,70,72,74,76,78,80,82,84,86,88,90,92,94,96,98,100,102,104,106,108,110,112,114,116,118,-1,-1,-1,120,-1,-1,-1,-1,-1,-1,-1,-1,-1,-1,-1,-1,-1,-1,-1,-1,-1,-1,-1,-1,-1,-1,-1,-1,-1,-1,-1,-1,-1,-1,-1,-1,-1,-1,-1,-1,-1,-1,-1,-1,-1,-1,-1,-1,-1,-1,-1,-1,-1,-1,-1,-1,-1,-1,-1,-1,-1,-1],"split_conditions":[3.7918381E3,4.064989E-1,2.1E3,6.5E1,4E0,5E-2,7.333331E-1,6.2295083E-2,8.3998954E-1,2E0,2.5612554E-1,2.5046207E-2,4.566155E3,1.5292E4,7.7922076E-2,1.28E4,2.3724224E3,4.6818182E-1,2E0,2.5013365E-2,2.542373E-1,2.9975E4,3E0,1.6127814E-1,5.053793E0,2E0,6.210526E-1,6.181047E-1,2.0903252E-1,5.304E3,2.3E3,2.258375E5,2.284E2,3.9583334E2,-1.5555556E-1,3.2270908E3,5.225554E-2,5E0,8.333333E-1,1.7E3,6.017478E-1,1.25E-1,7.241379E-1,-1E-1,1.4358975E-1,5.004672E-2,3.0541057E3,7.408763E3,8E0,3E0,1E1,8E0,3.8190258E-1,1.9748946E-1,2.6666668E-1,5E0,4.0120625E3,4.192872E-3,2.48E4,4.77236E-2,-9.5322646E-2,-4.7986113E-2,5.4199207E-1,-2.6108755E-2,-4.927534E-2,2.1858215E-2,-3.4468643E-2,-5.545186E-2,6.36442E-2,-4.7733773E-2,6.723128E-2,-8.2681775E-3,2.8464649E-2,1.1291808E-1,-2.4388865E-2,-9.941096E-3,-9.0748765E-2,-5.576985E-2,8.2299456E-2,-4.9057774E-2,8.0004126E-2,-2.8609334E-2,3.539622E-2,1.03479296E-1,1.3661812E-2,5.902037E-2,-9.5715806E-2,-1.9964883E-2,8.423084E-2,-9.174969E-2,1.6977217E-2,-7.050454E-2,-1.1213303E-3,2.293541E-3,1.0122461E-1,-4.8788413E-2,2.921907E-2,-4.2709723E-2,6.727523E-2,1.8225323E-2,5.266926E-2,2.113162E-2,-5.6608383E-2,-3.6016196E-2,9.223969E-4,9.024177E-3,-2.7247718E-2,4.6832208E-2,-1.952228E-2,1.3919027E-2,-4.6745054E-2,5.5816248E-2,-7.102408E-2,6.259848E-2,-4.6521164E-3,-1.09639475E-2,3.857078E-2,-7.0456113E-3,6.4131685E-2,8.4882386E-2,5.958513E-3],"split_indices":[19,28,21,12,46,36,24,31,24,46,35,24,20,0,34,22,20,42,7,26,34,17,45,30,10,45,3,5,25,23,22,17,14,14,40,19,25,6,37,18,5,36,33,40,30,25,20,19,11,45,1,6,26,26,44,9,19,32,22,0,0,0,29,0,0,0,0,0,0,0,0,0,0,0,0,0,0,0,0,0,0,0,0,0,0,0,0,0,0,0,0,0,0,0,0,0,0,0,0,0,0,0,0,0,0,0,0,0,0,0,0,0,0,0,0,0,0,0,0,0,0],"split_type":[0,0,0,0,0,0,0,0,0,0,0,0,0,0,0,0,0,0,0,0,0,0,0,0,0,0,0,0,0,0,0,0,0,0,0,0,0,0,0,0,0,0,0,0,0,0,0,0,0,0,0,0,0,0,0,0,0,0,0,0,0,0,0,0,0,0,0,0,0,0,0,0,0,0,0,0,0,0,0,0,0,0,0,0,0,0,0,0,0,0,0,0,0,0,0,0,0,0,0,0,0,0,0,0,0,0,0,0,0,0,0,0,0,0,0,0,0,0,0,0,0],"sum_hessian":[3.2302793E3,1.0245536E3,2.2057258E3,7.291432E2,2.9541037E2,1.5188547E3,6.8687103E2,6.120079E2,1.1713535E2,1.1114353E2,1.8426686E2,3.564865E2,1.1623682E3,6.387519E2,4.81191E1,5.799208E2,3.208706E1,1.0668386E2,1.04514885E1,8.5347176E1,2.5796352E1,1.788292E1,1.6638394E2,7.0093834E1,2.863927E2,1.0465646E3,1.1580363E2,2.5229121E2,3.864607E2,2.9506092E0,4.5168488E1,5.3312085E2,4.6799923E1,1.2427454E1,1.9659605E1,9.90903E1,7.593559E0,5.7885985E0,4.66289E0,1.9435497E1,6.591168E1,1.3132223E1,1.2664129E1,2.7264163E0,1.5156503E1,1.9857145E1,1.465268E2,5.7283886E1,1.2809947E1,2.634765E2,2.2916199E1,3.5630725E2,6.902573E2,8.753245E1,2.8271183E1,4.5687572E1,2.0660364E2,3.136755E2,7.278518E1,1.4617087E0,1.4889007E0,1.2393175E0,4.392917E1,1.9956952E2,3.3355136E2,3.045462E1,1.63453E1,1.0214556E1,2.2128978E0,4.0971665E0,1.5562439E1,6.0996002E1,3.80943E1,5.5990515E0,1.9945072E0,1.2327206E0,4.5558777E0,3.4350634E0,1.2278266E0,1.7984724E1,1.4507741E0,9.837577E0,5.6074104E1,1.1169759E1,1.9624647E0,1.1180777E1,1.4833525E0,1.242654E0,1.4837624E0,1.3425835E1,1.7306681E0,1.3049232E1,6.807915E0,1.4137012E2,5.156671E0,4.3703175E1,1.3580711E1,2.4693582E0,1.0340589E1,1.4995523E2,1.13521255E2,9.050655E0,1.3865542E1,2.1303142E2,1.4327583E2,5.011073E2,1.8915002E2,7.6213524E1,1.1318924E1,1.9648592E1,8.62259E0,4.4211594E1,1.4759789E0,1.2334768E1,1.9426888E2,1.9366484E1,2.9430902E2,6.2088997E1,1.0696184E1,3.9977818E1,3.9513545E0],"tree_param":{"num_deleted":"0","num_feature":"47","num_nodes":"121","size_leaf_vector":"1"}},{"base_weights":[5.4030435E-4,-2.287383E-1,1.067361E-1,-3.490933E-1,6.6959314E-2,-6.037353E-3,2.7657983E-1,-1.4748813E-1,-5.207512E-1,3.0530706E-1,-7.742539E-2,1.4880846E-1,-1.1354749E-1,5.3420496E-1,2.0979463E-1,1.1236678E-1,-3.2491672E-1,-6.8294245E-1,-3.4626204E-1,1.3989264E-1,8.312639E-1,-7.3206073E-1,-3.473334E-3,-5.756161E-2,5.869782E-1,2.5651745E-2,-2.2360969E-1,7.0190126E-1,2.5165321E-2,-2.3179801E-1,2.538825E-1,-9.703418E-2,6.157074E-1,2.6903188E-1,-4.5032498E-1,-1.1798079E-1,-7.4932003E-1,-6.100361E-1,-1.5269805E-1,-4.4393906E-1,3.1558153E-1,1.1587725E0,4.3413424E-1,7.5534925E-2,-9.110709E-1,-5.986261E-1,8.01588E-2,7.814801E-2,-3.2740027E-1,8.112874E-1,3.2881275E-1,-1.446454E-1,2.3342873E-1,1.8060558E-1,-2.8383967E-1,1.08748E0,5.355416E-1,2.8944162E-1,-6.0720813E-1,-2.920853E-2,-7.274805E-1,2.839369E-1,-4.198749E-1,-4.84999E-2,9.596969E-3,-5.094757E-2,5.5239204E-2,-3.453071E-2,5.665327E-2,-5.9159547E-2,-2.4190746E-2,-3.2253765E-2,5.6689907E-2,-1.8328585E-3,-6.0367104E-2,-8.4952526E-2,-2.723986E-2,-4.2467035E-2,3.5757448E-3,-5.0483346E-2,5.7325218E-2,1.1421554E-2,6.6176414E-2,9.790745E-2,1.2997364E-2,5.53187E-2,-9.125236E-2,2.8924681E-2,-8.441819E-2,-6.347751E-2,8.309655E-3,1.6671967E-3,8.806048E-2,-2.7261736E-4,5.890943E-2,-4.040672E-2,9.4282525E-3,7.2224714E-2,1.5576498E-3,4.2140827E-2,-1.2895233E-2,-2.62069E-2,9.969929E-3,2.6219422E-2,-1.10769365E-2,2.2001829E-2,-9.8268725E-2,-2.3540473E-2,4.288365E-2,8.535594E-2,-4.1429726E-3,2.3275632E-2,6.610558E-2,-2.869496E-2,5.1895056E-2,6.573953E-2,-7.1816936E-2,6.027391E-3,-8.1209436E-2,5.238735E-2,-7.39937E-2,1.4091512E-2,3.4502402E-2,3.8654894E-2,-6.300131E-2],"categories":[],"categories_nodes":[],"categories_segments":[],"categories_sizes":[],"default_left":[0,0,0,0,0,0,0,0,0,0,0,0,0,0,0,0,0,0,0,0,0,0,0,0,0,0,0,0,0,0,0,0,0,0,0,0,0,0,0,0,0,0,0,0,0,0,0,0,0,0,0,0,0,0,0,0,0,0,0,0,0,0,0,0,0,0,0,0,0,0,0,0,0,0,0,0,0,0,0,0,0,0,0,0,0,0,0,0,0,0,0,0,0,0,0,0,0,0,0,0,0,0,0,0,0,0,0,0,0,0,0,0,0,0,0,0,0,0,0,0,0,0,0,0,0],"id":12,"left_children":[1,3,5,7,9,11,13,15,17,19,21,23,25,27,29,31,33,35,37,39,41,43,45,47,49,51,53,55,57,59,61,63,65,67,69,71,73,75,77,79,81,83,85,-1,87,89,91,93,95,97,99,101,103,105,107,109,111,113,115,117,119,121,123,-1,-1,-1,-1,-1,-1,-1,-1,-1,-1,-1,-1,-1,-1,-1,-1,-1,-1,-1,-1,-1,-1,-1,-1,-1,-1,-1,-1,-1,-1,-1,-1,-1,-1,-1,-1,-1,-1,-1,-1,-1,-1,-1,-1,-1,-1,-1,-1,-1,-1,-1,-1,-1,-1,-1,-1,-1,-1,-1,-1,-1,-1],"loss_changes":[7.840089E1,3.629862E1,4.2152878E1,2.499929E1,1.019972E1,2.204995E1,1.4997101E1,1.5464603E1,1.0828186E1,9.606362E0,8.950921E0,4.911551E1,1.198209E1,1.5359512E1,1.3668007E1,1.4448693E1,1.4951843E1,7.4716263E0,9.626728E0,8.983735E0,2.9482079E0,6.7604227E0,8.369048E0,1.3571511E1,9.802471E0,1.2278933E1,1.06819E1,8.106735E0,7.8090687E0,6.4032955E0,1.2998718E1,1.2111876E1,6.796851E0,1.2883974E1,6.8718987E0,6.428724E0,7.240265E0,9.940575E0,9.235563E0,6.1519823E0,6.0534596E0,1.7889862E0,7.7062454E0,0E0,5.3131847E0,3.734622E0,9.319093E0,1.428688E1,1.1940604E1,1.1056553E1,9.727386E0,1.0892212E1,6.9697485E0,1.0005683E1,9.955006E0,2.367546E0,7.2507076E0,9.161272E0,8.005171E0,5.4502516E0,7.531681E0,1.022229E1,1.1264166E1,0E0,0E0,0E0,0E0,0E0,0E0,0E0,0E0,0E0,0E0,0E0,0E0,0E0,0E0,0E0,0E0,0E0,0E0,0E0,0E0,0E0,0E0,0E0,0E0,0E0,0E0,0E0,0E0,0E0,0E0,0E0,0E0,0E0,0E0,0E0,0E0,0E0,0E0,0E0,0E0,0E0,0E0,0E0,0E0,0E0,0E0,0E0,0E0,0E0,0E0,0E0,0E0,0E0,0E0,0E0,0E0,0E0,0E0,0E0,0E0,0E0,0E0],"parents":[2147483647,0,0,1,1,2,2,3,3,4,4,5,5,6,6,7,7,8,8,9,9,10,10,11,11,12,12,13,13,14,14,15,15,16,16,17,17,18,18,19,19,20,20,21,21,22,22,23,23,24,24,25,25,26,26,27,27,28,28,29,29,30,30,31,31,32,32,33,33,34,34,35,35,36,36,37,37,38,38,39,39,40,40,41,41,42,42,44,44,45,45,46,46,47,47,48,48,49,49,50,50,51,51,52,52,53,53,54,54,55,55,56,56,57,57,58,58,59,59,60,60,61,61,62,62],"right_children":[2,4,6,8,10,12,14,16,18,20,22,24,26,28,30,32,34,36,38,40,42,44,46,48,50,52,54,56,58,60,62,64,66,68,70,72,74,76,78,80,82,84,86,-1,88,90,92,94,96,98,100,102,104,106,108,110,112,114,116,118,120,122,124,-1,-1,-1,-1,-1,-1,-1,-1,-1,-1,-1,-1,-1,-1,-1,-1,-1,-1,-1,-1,-1,-1,-1,-1,-1,-1,-1,-1,-1,-1,-1,-1,-1,-1,-1,-1,-1,-1,-1,-1,-1,-1,-1,-1,-1,-1,-1,-1,-1,-1,-1,-1,-1,-1,-1,-1,-1,-1,-1,-1,-1,-1],"split_conditions":[3.7918381E3,4.064989E-1,3E3,2.258375E5,4E0,4E0,5E-2,4E0,1.2E3,2E0,2.5612554E-1,2E0,6.872428E-1,2.0018922E-1,8.94E2,3.4E3,4E0,8.433E5,8.905303E-2,2.5013365E-2,2.542373E-1,1.07E2,3E0,4.0205017E-2,5.105179E-2,2.4311111E2,6.636E5,6.285097E-1,4.7797356E0,3.2875E2,6.504906E-1,2.2285715E2,4.376947E0,3.333448E-2,3.1629953E-1,1.492E3,4.376947E0,2.4884286E5,3.07E2,2.4305556E-2,4.762172E0,1.25E-1,7.241379E-1,7.5534925E-2,2.9975E4,5.0092764E-2,2.03E4,2.6295E3,5E-2,5.808686E-1,6E0,1.7996666E3,1.7312126E-1,1.2E1,6.2596375E-1,3.7372E4,1.7794889E3,3.4994355E-1,2.7545995E-1,6.7713004E-1,8.04E4,6.8329365E3,1.8475714E5,-4.84999E-2,9.596969E-3,-5.094757E-2,5.5239204E-2,-3.453071E-2,5.665327E-2,-5.9159547E-2,-2.4190746E-2,-3.2253765E-2,5.6689907E-2,-1.8328585E-3,-6.0367104E-2,-8.4952526E-2,-2.723986E-2,-4.2467035E-2,3.5757448E-3,-5.0483346E-2,5.7325218E-2,1.1421554E-2,6.6176414E-2,9.790745E-2,1.2997364E-2,5.53187E-2,-9.125236E-2,2.8924681E-2,-8.441819E-2,-6.347751E-2,8.309655E-3,1.6671967E-3,8.806048E-2,-2.7261736E-4,5.890943E-2,-4.040672E-2,9.4282525E-3,7.2224714E-2,1.5576498E-3,4.2140827E-2,-1.2895233E-2,-2.62069E-2,9.969929E-3,2.6219422E-2,-1.10769365E-2,2.2001829E-2,-9.8268725E-2,-2.3540473E-2,4.288365E-2,8.535594E-2,-4.1429726E-3,2.3275632E-2,6.610558E-2,-2.869496E-2,5.1895056E-2,6.573953E-2,-7.1816936E-2,6.027391E-3,-8.1209436E-2,5.238735E-2,-7.39937E-2,1.4091512E-2,3.4502402E-2,3.8654894E-2,-6.300131E-2],"split_indices":[19,28,23,17,46,46,36,46,21,46,35,46,5,27,21,22,6,16,30,26,34,2,45,25,27,14,16,5,10,14,26,14,10,27,35,18,10,17,2,32,10,36,33,0,17,31,15,18,42,26,8,23,25,8,29,0,18,35,35,3,16,19,17,0,0,0,0,0,0,0,0,0,0,0,0,0,0,0,0,0,0,0,0,0,0,0,0,0,0,0,0,0,0,0,0,0,0,0,0,0,0,0,0,0,0,0,0,0,0,0,0,0,0,0,0,0,0,0,0,0,0,0,0,0,0],"split_type":[0,0,0,0,0,0,0,0,0,0,0,0,0,0,0,0,0,0,0,0,0,0,0,0,0,0,0,0,0,0,0,0,0,0,0,0,0,0,0,0,0,0,0,0,0,0,0,0,0,0,0,0,0,0,0,0,0,0,0,0,0,0,0,0,0,0,0,0,0,0,0,0,0,0,0,0,0,0,0,0,0,0,0,0,0,0,0,0,0,0,0,0,0,0,0,0,0,0,0,0,0,0,0,0,0,0,0,0,0,0,0,0,0,0,0,0,0,0,0,0,0,0,0,0,0],"sum_hessian":[3.2179548E3,1.0182915E3,2.1996633E3,7.235935E2,2.9469797E2,1.3225057E3,8.7715765E2,3.3362448E2,3.8996906E2,1.10753494E2,1.8394447E2,5.4178864E2,7.807171E2,1.7913649E2,6.980211E2,1.3551753E2,1.9810693E2,2.0059651E2,1.8937256E2,8.5218185E1,2.5535307E1,1.7767208E1,1.6617726E2,3.6890814E2,1.7288048E2,3.450668E2,4.3565027E2,1.3446118E2,4.467531E1,6.2976704E1,6.3504443E2,9.627302E1,3.924451E1,3.4337097E1,1.6376984E2,2.1382286E1,1.7921422E2,7.92395E1,1.1013306E2,1.9359106E1,6.5859085E1,1.2943265E1,1.2592042E1,1.2263503E0,1.654086E1,1.9715769E1,1.464615E2,2.4593217E2,1.22975975E2,9.13595E1,8.152097E1,1.8980424E2,1.5526257E2,5.623663E1,3.7941364E2,3.8859043E1,9.5602135E1,3.1890278E1,1.2785028E1,4.5456985E1,1.7519716E1,6.0848047E2,2.6563997E1,2.7418634E1,6.8854385E1,2.95436E0,3.629015E1,1.37570305E1,2.0580067E1,4.346542E1,1.2030442E2,1.6129837E1,5.2524486E0,1.2863982E1,1.6635023E2,2.4266928E1,5.4972576E1,3.5350853E1,7.47822E1,1.6644985E1,2.71412E0,5.2113255E1,1.374583E1,1.098394E1,1.9593247E0,1.1104136E1,1.4879056E0,2.2345517E0,1.4306307E1,1.4469695E1,5.2460737E0,1.4006496E2,6.396532E0,2.2133513E2,2.4597036E1,8.373041E1,3.9245567E1,7.646658E1,1.4892917E1,5.5545994E1,2.597498E1,1.0907589E2,8.0728355E1,1.1905732E2,3.6205254E1,5.3029297E1,3.207333E0,3.671591E2,1.2254534E1,3.7215225E1,1.6438165E0,5.905052E1,3.6551613E1,1.1963785E1,1.9926493E1,2.1553357E0,1.0629693E1,